airplane 0.054031156 -0.034189627 0.12705703 -0.06589047 0.045155723 0.09997728 0.084797665 0.0062050805 0.0064746873 0.01896784 0.13197587 0.017462693 0.088901915 -0.058562037 -0.039898448 -0.04363102 0.04491858 0.0069745453 -0.06964699 0.0742095 -0.043808766 0.059607137 -0.03546596 -0.029216506 -0.054781374 -0.018273024 0.07734997 -0.0152147915 0.006571534 0.15099213 0.16013864 -0.023796635 0.11514544 -0.039466813 0.017630229 0.122564755 0.046216227 -0.020306084 -0.039467167 0.12453945 0.06128765 -0.038670402 -0.010228437 0.017580569 0.06806545 0.13626719 -0.03576191 0.11362507 0.019017933 -0.018847754 0.00373163 -0.065988086 0.098416194 0.012039532 0.11117121 0.11133806 0.065292396 0.093776345 -0.010959022 -0.013159403 0.1288054 0.025556542 -0.035947308 0.022194788 -0.07260595 0.11821455 -0.055370454 -0.06743639 -0.05827749 0.026900921 0.12609597 0.007825214 -0.046336286 -0.013225963 0.021922152 -0.042425085 0.009140543 0.05400678 0.0020750575 0.11233026 -0.06376381 -0.006376672 0.12546547 0.010284967 0.04870518 0.04239732 0.10285885 0.10457794 -0.04626164 0.014539499 0.0033291779 -0.061833896 -0.006943855 0.06285319 0.12252671 0.12649284 -0.026852624 -0.031194914 -0.04184535 -0.058083326 0.116494246 0.14396185 0.023664484 -0.0623954 -0.07088262 -0.07357014 -0.012553231 0.102982596 -0.066237114 0.10009206 0.026773445 0.13373941 0.018993795 0.06586443 0.1303264 -0.017973717 -0.032478556 -0.06542355 -0.038505536 0.0116805 -0.047834933 0.08231789 -0.073035315 0.05365635 -0.00738135 -0.019347813 -0.017800065 -0.049330175 0.030084865 0.13107845 0.06178682 0.13768668 -0.0727014 -0.04583141 0.02323968 0.057617683 0.12446303 -0.0022822274 0.10735817 -0.02787337 0.08985008 -0.015876794 0.10087315 -0.07599442 0.13521937 -0.041188423 0.0028574935 0.085781895 -0.036267888 -0.07852504 -0.007008689 -0.020923585 -0.013664679 -0.010552058 0.056325074 0.12138041 -0.08076249 -0.04195957 0.046614546 -0.029309569 0.034064632 -0.038219694 -0.0432871 -0.007635097 -0.007969085 -0.035231307 0.10568882 0.13247943 0.06732507 0.12254037 -0.021166733 0.077393755 0.04953494 0.08164485 -0.043280974 -0.023108184 0.0013888822 0.14606145 0.115710646 -0.06922398 -0.036968686 0.08540326 0.12106656 -0.034205988 -0.0043369057 0.083982326 0.07607879 -0.033790946 -0.04233149 0.09511259 -0.013916169 -0.05273184 0.07156399 -0.055366296 -0.0050914874 -0.026136428 0.05990626 0.1606903 0.07082903 -0.016690431
animal 0.008343288 0.028005885 0.07767441 0.011773796 0.039316524 0.15040351 0.12836744 0.08680439 0.076925136 0.0413257 0.10337599 0.050358225 -0.029586177 -0.021330284 0.13041641 0.064062625 -0.092070416 0.10437234 -0.017641276 0.13651024 0.06171069 0.020860616 0.059403263 0.035302393 0.03134864 0.06269715 0.09446782 0.009930623 0.10392541 0.07745102 0.06227821 0.05414457 0.07944423 0.10512584 0.07780884 -0.013467953 -0.010834843 0.04283837 0.085807584 0.064584084 0.09147911 0.041052412 -0.027934473 0.06252483 0.068443656 0.062773086 -0.062170796 -0.05901027 0.024435082 -0.026968816 0.034368433 -0.02712259 -0.022727828 -0.042916097 -0.025780367 -0.0050331606 0.083852455 0.065188475 0.10865171 0.058747392 0.037011977 0.007956483 0.041410133 -0.013201524 0.11243778 0.02039299 0.02922263 0.2121003 -0.07428181 0.111615226 0.11450894 -0.026600583 0.03938261 0.14514972 -0.069610685 0.15105888 -0.01714588 -0.059853274 0.0032214709 -0.000740263 0.0741635 -0.06208208 -0.014952307 0.03183445 -0.036922134 0.11254984 -0.05099065 0.05051401 -0.04257953 0.07634596 0.004746849 0.027650444 0.028779328 0.09312002 0.1091967 0.075713724 0.09068944 0.03518571 0.15044078 0.1164206 0.04372977 -0.047272567 0.12713075 -0.02379533 0.097233295 0.05816158 0.028628986 -0.020071676 -0.023277985 0.04877126 0.007540724 0.10152619 0.106969185 -0.1016143 0.0512876 -0.04127499 -0.039302394 0.056097165 -0.012604744 0.07983261 0.03387327 0.13868889 0.058134023 -0.015348955 0.036399934 -0.07165396 0.0752919 0.033990405 0.015906619 0.024138423 -0.01560512 0.06482644 0.056426756 0.036385465 0.056103867 0.13165031 0.055226635 0.027621914 0.07231293 -0.0629024 0.04562043 -0.051592845 0.011960703 0.1844728 0.04557966 -0.007350025 -0.048494536 0.08091937 0.09923643 -0.0063474765 -0.07098383 0.15210737 0.17713879 -0.040229626 -0.004565771 0.035326567 -0.038858704 0.05596737 0.0986584 -0.001237614 0.0013681677 0.10369531 -0.012059704 0.051534858 0.07228483 -0.009430557 0.051183257 0.013154897 0.09426527 0.09746068 0.003173205 0.084711164 -0.022995656 -0.018048484 0.016573125 -0.0056752525 -0.02737264 0.14165032 -0.005048688 -0.010054541 -0.05348849 0.09206009 0.0101506505 0.14300822 -0.0057527376 0.055253156 0.022596505 0.054015864 0.014123892 0.0812622 -0.0003803594 0.021853415 0.110077426 0.020261738 -0.031417016 -0.055531166 0.11116231 0.093075044 -0.03427776 -0.01541383
arm 0.014212159 0.037034545 -0.06545915 0.12351178 -0.08681003 -0.027744886 -0.06670449 0.07517449 0.03695912 -0.0713174 -0.024959106 0.042909194 0.012439495 0.097876556 0.04666261 0.104647234 0.028246554 0.0015265389 0.07984494 0.01840101 0.109886564 0.07532022 0.1235688 0.13145503 0.06430927 0.14428225 -0.013360509 0.04592912 0.1241134 -0.012511035 -0.055741206 0.016961 -0.0537483 0.17188592 -0.016529812 0.04856598 0.018291797 0.07304957 -0.0054014935 0.018032784 0.03849734 0.066916585 0.026540415 0.012938759 0.031174853 -0.018617723 0.0025235184 -0.044726364 -0.013925609 0.16729002 -0.04535562 0.07205788 -0.044889428 0.0100695165 -0.017498022 -0.05069847 -0.031544223 0.015353142 0.043815922 0.070941344 -0.052386224 -0.06491886 0.09922187 -0.013316415 0.099899836 -0.0053669186 0.06210551 0.13228007 0.0109459665 0.08456017 -0.040403258 0.021648912 0.021196606 0.13803484 -0.031480126 0.10963244 0.014282779 0.035514332 0.028267104 0.020724768 0.11425957 0.035584584 -0.0365982 0.030976625 -0.030761277 0.035084497 0.052449446 0.028358607 -0.0065853056 -0.0252035 0.07876369 0.07094453 -0.013576418 0.05850807 0.048325606 -0.02307139 -0.0003074957 0.060582504 0.09096178 0.095567726 -0.043841332 -0.03624049 0.07436177 0.08234476 0.09871645 0.1312898 0.08245451 -0.03554247 0.045752563 -0.060573388 -0.036173426 -0.05660857 0.089275554 0.032614578 0.0035840538 0.08375576 0.043867663 0.12369322 0.08122376 0.14454979 0.055638336 -0.03450405 0.07092042 -0.0792847 0.065981954 0.14625384 0.123977706 0.07708423 -0.008639235 -0.0816178 0.0073945695 0.0007223644 0.072274506 0.016344108 0.059092157 -0.024134131 -0.06650604 0.07414577 -0.0021554579 0.13650513 -0.035891708 0.13653816 -0.008987666 0.10380605 0.037075575 0.13874353 0.07353887 -0.056537367 0.11665336 0.10857297 0.03658294 0.027770605 0.113826185 -0.010362983 0.03354201 0.0058080633 0.13084121 0.15331365 -0.032590337 0.057251748 -0.06254526 0.018398665 0.028913628 0.04974803 0.08870671 0.12381632 -0.072369754 -0.04057947 0.0018898757 -0.02697449 0.14604 -0.0716434 -0.08349777 -0.072790794 0.13399586 0.07913345 -0.022122562 -0.038427074 -0.01200115 0.08548318 0.0011682662 0.045216773 0.025733553 0.017575042 0.005206989 -0.051664256 0.023982737 0.11851153 0.021072106 0.07427407 0.022416549 0.12236907 0.0023974052 0.09399002 0.032984 0.005721981 0.14494343 0.024390904 -0.02676738 0.09683311
bag 0.11315618 0.16025113 -0.01989687 0.10467977 0.02685814 -0.017550534 0.00282568 0.040498488 0.03603555 0.05564552 -0.03227278 -0.047283985 0.031225353 0.09020489 0.054860134 0.13027687 0.02747483 0.017770438 0.13057321 0.032804545 0.053840727 0.03273472 0.09242553 0.10672746 0.1139415 0.06279885 0.06496634 0.08251815 0.066789135 -0.016085442 0.047847286 -0.016117996 0.011902409 0.10917578 0.09412028 0.050390083 0.0555155 0.093039185 0.06129751 0.0609342 -0.023808604 0.08393871 0.109528676 0.07994317 0.05340693 -0.04683684 -0.05960555 0.003266555 0.015265858 0.12143034 -0.006785371 0.07211255 -0.057103142 0.100678235 0.024482561 0.0036841964 0.024816938 -0.0005528726 -0.055045143 0.11508592 0.010632536 0.033402603 0.019533103 0.031818297 0.099186726 -0.022775516 0.04576266 0.11036905 0.05692779 0.044706017 -0.0073169325 0.036817938 0.1061658 0.06898448 -0.05118245 0.12870853 0.08344864 0.10003257 0.12108556 0.0073881308 0.09999067 0.078879446 -0.040482353 0.13798876 0.072883375 -0.010702034 0.029384037 -0.009535062 0.012713605 0.01397523 0.02649623 0.09318027 0.10431899 -0.06553515 0.035330545 0.006047731 0.032957688 0.061730888 0.056492496 0.075545736 -0.014679111 -0.005687891 0.033354662 0.122131206 0.10804306 0.10788399 0.010952513 -0.06907286 0.0828122 0.016202448 0.013173711 0.015410811 0.010634836 0.07765032 0.03723393 0.035649233 0.1195838 0.13040759 0.13596116 0.0053181313 0.077688746 0.03840717 0.10141 0.021464452 0.15299872 0.036429256 -0.03191101 0.1323246 0.004287799 0.035895776 0.047646154 -0.031489532 0.018966047 0.015261638 0.05296548 -0.054142866 0.00026675727 0.051889498 0.016661517 0.15356515 -0.021086495 0.03607049 0.06941796 0.10999343 0.04067981 0.18562254 -0.024087507 -0.03979705 0.04457804 0.077679396 0.11243799 0.05059007 -0.0041369298 -0.060860485 0.030292165 -0.012410193 0.0661394 0.0909889 0.045216095 0.0028319578 0.014042689 0.16816157 0.09350064 0.12261052 0.049120862 0.11450809 0.021223577 -0.022191126 0.034444623 0.018350687 0.09920501 -0.016422605 0.032215573 0.008664268 -0.0059766253 0.04437318 0.08674732 -0.03932147 -0.029946232 0.081852205 0.12347287 0.077802554 0.074447885 0.02483557 0.07609506 0.03826515 0.06752821 0.03470356 0.010663379 0.0009812996 0.046617553 0.03875795 0.03232445 0.107341416 0.086839296 0.11908817 -0.022492794 0.051433176 0.04817977 0.16271646
banana 0.13942316 0.14124456 -0.06701505 0.008106653 -0.017963232 -0.07756875 -0.029054191 0.0068403883 -0.04727019 0.029117074 -0.024298813 0.0071316073 0.025362726 0.15089947 0.17321652 0.02547556 0.021135652 -0.005838191 0.06622906 -0.02682693 0.05427249 -0.028523557 0.017539935 -0.02093132 0.16847323 0.01813744 0.013691369 0.14179377 -0.009530842 -0.037733912 -0.0076899277 0.03175786 -0.04715564 0.053844336 0.048131227 -0.06076937 -0.07764491 -0.03140249 0.021072619 0.026325276 -0.002727486 0.0022880032 0.11194887 0.15984179 0.071827225 -0.055912912 0.042522997 -0.0074846563 -0.055448484 0.02606094 0.044463377 -0.0013717609 -0.05028067 0.05938635 -0.024586273 0.026353812 0.0007122065 -0.058862012 0.016402625 0.034014523 -0.050648578 0.042939633 -0.0451088 -0.04884691 0.062909074 -0.06486872 0.087877296 0.054444335 0.09625918 -0.015274045 -0.049894206 0.077715896 0.1330795 -0.026966393 -0.076214984 0.05595519 0.10535154 0.0010759244 0.008303352 -0.02772015 0.07795423 0.04966768 -0.08467674 0.13988969 0.0014395764 -0.04799098 -0.03698415 0.0024242643 -0.025827724 -0.007798779 -0.0004980359 0.07953348 0.12725367 -0.049195778 0.0005075238 -0.008969087 0.13130032 -0.046923883 0.08207167 0.09349442 -0.035522405 -0.03737137 0.005808263 0.11364226 0.18532653 0.12701616 0.06951401 -0.029260248 0.073316 -0.013500694 0.0819019 -0.00082399644 -0.03322391 0.017270718 -0.054000746 -0.060457405 0.06070419 0.06463287 0.1587495 0.06781417 0.15060793 0.0064177336 0.05918276 0.042924587 0.13867764 0.000958793 -0.018365758 0.17038181 -0.06662574 -0.018068867 0.056413077 -0.003882282 0.15023708 0.1031633 -0.050561916 0.018818453 -0.0016261301 -0.04689325 0.019097306 0.113419525 -0.03277167 -0.046424706 0.061896916 0.13219981 -0.04870935 0.11900041 -0.059282724 -0.013901594 0.079268195 0.119643874 0.044989206 0.0833269 0.04360835 -0.014572952 0.06032024 -0.021724813 0.12424024 0.071841165 0.044885065 0.02909617 0.06366691 0.09721525 0.028006442 0.14207606 0.059031148 -0.0019516042 -0.0478825 -0.022070657 0.022498023 -0.031033488 0.020343583 -0.008565884 0.009976187 0.0397279 0.044810638 0.089844406 0.063654624 -0.04076832 -0.056119062 0.092262246 0.038516857 -0.04969852 -0.07909026 0.041847903 0.022849083 -0.05303159 0.08149789 0.009284016 0.075373285 -0.027953632 0.0054015554 0.019939318 -0.02798543 0.12674259 0.1298118 0.11286515 -0.045027066 -0.08272201 0.07773746 0.16495675
basket 0.16334555 0.15368097 -0.012273326 0.014851195 0.02724695 -0.06310533 -0.019918459 -0.04646267 -0.04838659 0.11636115 -0.034819767 -0.03026577 0.06513019 0.15340936 0.1048224 -0.014902453 0.026121764 -0.011741545 0.0731244 -0.0493256 -0.0011415625 -0.028823985 -0.03203683 -0.025219226 0.14897494 -0.010003888 0.006315494 0.11457133 -0.05160191 -0.01493788 -0.0035859644 0.0034644417 -0.040495466 -0.010624695 0.017989345 -0.036053274 -0.03159635 -0.05474973 0.0205904 0.109145634 -0.04073698 -0.03617016 0.11240606 0.1734359 0.12447214 -0.017897775 0.030293819 0.05026241 -0.043829206 -0.01266154 0.042319965 -0.024148734 -0.06456452 0.09563117 0.0017016407 0.043491095 0.04372413 -0.087208256 -0.011443711 0.05559646 -0.029613705 0.075367376 -0.039183065 -0.038533174 0.056566305 -0.06674413 0.043950394 0.014324207 0.12569202 -0.027233843 -0.03325808 0.08712502 0.12275548 -0.049945038 -0.06350713 0.04083558 0.11995793 0.05997357 0.040386897 -0.043342352 0.02600249 0.089426965 -0.04844176 0.16118342 0.069411345 -0.059837505 -0.05377901 -0.009416473 -0.0141951665 0.02043098 -0.062329054 0.045009416 0.16210333 -0.062001873 0.02277349 0.028965944 0.16917636 -0.03170136 0.012623273 0.031529617 0.013177108 0.017373586 -0.025709668 0.12932968 0.1947961 0.01045068 0.06667818 -0.008438498 0.04136836 0.0065576616 0.107012905 0.026588086 -0.054262776 0.039132282 -0.05861072 -0.058488987 0.09542934 0.010572984 0.14441176 -0.034760084 0.14329174 0.024764001 0.01670426 0.121609405 0.16583009 -0.014920648 -0.050195716 0.14179887 -0.06164945 -0.0039424994 0.053976245 0.018138705 0.08338121 0.11565133 -0.052050017 -0.010016968 0.035273023 -0.04418514 0.051006254 0.10277291 -0.050481904 -0.05361611 0.10835217 0.060575202 -0.062180914 0.0832556 -0.0688166 0.016102452 0.020957364 0.05409613 0.058627144 0.03945623 0.0064346283 -0.042942822 0.08835179 0.03399592 0.056560326 0.0049437466 0.0749982 0.007635854 0.102421835 0.08426028 0.04380427 0.11236089 0.017903209 -0.038452994 -0.037117932 -0.012608102 0.053730015 -0.011919913 -0.0007205255 0.023973895 0.053687975 0.063912205 -0.0068659256 0.094615795 0.09449134 -0.011419288 -0.04922235 0.02462463 0.06571689 -0.019183258 -0.054818403 0.0417087 0.07018409 0.01481263 0.09365399 -0.03586993 0.11037404 -0.044470116 0.05079174 -0.033288997 -0.02843285 0.11119701 0.14325465 0.10742651 -0.067241594 -0.056439072 0.09311246 0.16111974
beach 0.06111351 0.0203829 0.14336462 -0.045421127 0.08739583 0.14183073 0.12731792 -0.047854047 0.023282498 0.051199313 0.08935767 -0.02261319 0.040436056 -0.051471207 -0.047659576 0.0194707 0.013520546 0.087502085 -0.04191334 0.13609616 -0.019578407 0.049378388 -0.040307306 -0.017549051 -0.012375703 -0.04894354 0.13403668 -0.0540578 -0.0073499656 0.111223884 0.13371624 -0.031057172 0.16025545 -0.006336942 0.10307543 0.0544682 0.10926995 0.0043485677 0.047481358 0.11338144 0.040714376 0.02321343 0.01635316 0.042618446 0.06157031 0.104860894 -0.052103132 0.10307994 0.09106758 -0.046352934 0.046275258 -0.044707805 0.060787212 0.03750725 0.11140416 0.076741636 0.10329185 0.0828981 -0.04380311 0.027063385 0.16334307 0.081727676 -0.02200114 0.090337165 -0.025604315 0.08300853 -0.050916497 -0.018869687 -0.0049281074 0.07992684 0.093461946 -0.015600643 0.018339403 -0.006702709 0.012585166 0.026241932 0.006456004 -0.008379676 0.06321345 0.03917866 -0.03221941 -0.031882953 0.1124172 0.014808302 0.03026446 0.029423567 0.058893472 0.07360323 -0.03163478 0.05502226 -0.022003088 -0.045946617 0.049160164 -0.017286789 0.08018267 0.10413384 0.02399596 0.0023343351 -0.04299916 -0.021259863 0.13214277 0.13026245 0.04019965 -0.031635102 -0.025075888 -0.037560042 -0.037979234 0.0304313 -0.05071902 0.1493096 0.06420169 0.16742103 0.009794795 0.03245301 0.13944753 -0.03540722 0.042720728 -0.041094195 -0.006381773 -0.039796945 0.004167168 0.13812232 -0.024786618 0.06823667 0.045942485 -0.05415209 -0.012650328 -0.026225494 0.09911227 0.11437429 0.012047187 0.113684595 -0.06953866 -0.029231463 0.06337821 0.016105074 0.11945406 0.039682735 0.15294138 -0.038149167 0.10838781 -0.026291873 0.06815917 0.015762452 0.11846868 0.020348892 -0.02748342 0.06727589 -0.04055888 -0.036873337 -0.02028209 0.03838215 0.016357051 -0.032032155 0.0067453496 0.05653777 -0.067909226 -0.03872115 0.07416204 -0.018687215 0.07214575 0.068503 -0.010706874 -0.01211261 -0.040452387 -0.021990238 0.15739374 0.08875153 0.0784578 0.120696224 -0.04511596 0.13622761 0.063314766 0.06995511 -0.06926392 -0.0545358 -0.017292162 0.14051777 0.04133773 -0.051882885 0.06053614 0.1340534 0.12368981 0.037866727 0.053011745 0.13356654 0.025833935 -0.04547786 -0.027084377 0.011656604 -0.0054307324 -0.026963085 0.11427754 -0.05141232 0.021740982 0.018492391 0.025139084 0.1372981 0.07379224 -0.031948764
bear 0.04019014 0.11931957 0.035149045 0.047020856 0.023629112 0.082617305 0.04552513 0.10551936 0.08457978 0.00097366853 0.072197735 0.06355328 -0.001486315 0.058438517 0.12519445 0.07112526 -0.039515816 0.11585885 0.07207015 0.110861786 0.039834674 0.015618583 0.07381046 0.07483015 0.09248724 0.11041592 0.08565817 0.091526836 0.11825888 0.008743188 -0.008934927 0.03136043 0.019563705 0.08500945 0.049907453 -0.045481175 -0.0057989806 0.025134288 0.0921889 0.06217321 0.09684085 0.06243864 -0.03465955 0.08031379 0.04100254 0.03185781 -0.020283964 -0.07664972 0.0057366723 0.033816528 -0.031801973 -0.07004442 0.018379856 -0.0094929775 0.07000782 -0.019388918 0.059993584 0.051686514 0.075776294 0.0911043 0.036057677 -0.07326185 0.0577538 0.031066176 0.063909136 -0.054582767 -0.049863648 0.13144971 0.028913664 0.06425839 -0.005278137 0.040674232 0.10807817 0.13284498 -0.0876529 0.15629746 0.020351827 -0.06849431 0.021957504 -0.0064966073 0.103289016 0.032280713 -0.05799544 0.094662756 -0.017049052 0.09710069 -0.009401054 0.10811212 0.022681685 0.05897021 0.09922199 0.074386224 0.042808097 0.06134898 0.098573826 0.041970093 0.09329838 0.042059205 0.14936832 0.11673014 -0.0195387 -0.031779684 0.14708115 -0.00366791 0.07314664 0.1620929 0.04811794 0.014743086 -0.0353849 0.028116513 -0.008872513 0.022653699 0.09371217 -0.06609615 0.022333201 -0.057358257 -0.043744158 0.075593084 0.0909339 0.16946343 0.04853546 0.05171974 0.085143186 -0.007367723 0.1096254 -0.012426622 0.115998104 0.08519287 -0.0030681477 -0.032940984 0.0140364235 0.0935194 0.1185589 0.026761213 0.015600674 0.07491562 -0.01663898 0.04451067 0.09651394 0.06433919 0.03817077 0.06740184 0.031823758 0.16360433 0.06465237 0.078461275 -0.01577239 0.020449402 0.15898716 0.029546915 0.006425471 0.098392926 0.21404286 0.0022877057 0.023967516 0.035720192 0.06422071 0.13967785 0.08648381 0.050252113 -0.016033897 0.062112726 0.011217215 0.06358795 0.02037312 0.069912 -0.038372386 0.012937234 0.06839618 0.08620018 0.052453425 0.025256008 -0.0676054 -0.00826232 0.049616985 0.075493105 -0.06508219 0.04503165 0.0295012 0.07612912 0.046401594 0.0064341733 0.076097585 0.08790721 0.030754512 0.056717224 0.034233984 0.049267463 -0.014106253 -0.015026355 0.0140052205 0.08292692 0.06112388 0.09272496 0.02114814 -0.015169251 0.08427808 0.099825524 0.02897398 0.03476635
bed 0.16986361 0.16373765 0.042557325 -0.02504482 0.10270411 0.00089910324 0.043834455 -0.05974115 -0.05392186 0.09215142 -0.020679697 -0.057864897 0.07160826 0.06798616 0.031259835 0.018662143 0.07009034 0.051240534 0.05386736 0.051071465 -0.020115262 0.046413433 -0.033424355 -0.029440446 0.05344298 -0.050096445 0.07507541 0.03393506 -0.065853775 0.047002822 0.070188545 -0.040504508 0.047640152 0.0108947335 0.064030215 0.00577076 0.03635198 -0.023652012 0.07027289 0.10564464 -0.026861493 -0.027320523 0.0832745 0.1749141 0.12304949 0.011256363 -0.029014286 0.076814525 0.01977323 -0.011649853 0.060404718 -0.007336446 -0.041761935 0.14459798 0.09355525 0.08042885 0.084849 -0.058476485 -0.06793197 0.09206788 0.03922132 0.109238066 -0.053825002 0.05959662 0.021404149 -0.0032547517 -0.01103509 0.0022668238 0.121398784 0.013556762 0.015879512 0.07255908 0.090776876 -0.056173146 -0.057086594 0.054576524 0.120049044 0.096368946 0.083468504 -0.021652695 -0.01834107 0.07202117 0.024740335 0.12375832 0.09853501 -0.058525447 -0.066855215 -0.015772212 -0.03251527 0.005377392 -0.09027141 -0.01606991 0.1264496 -0.07156836 0.024164211 0.06325323 0.11552297 -0.021615367 -0.02521523 -0.0034035288 0.089386016 0.06480634 -0.004098524 0.061842594 0.12653573 -0.04073151 0.050266746 -0.00092191034 0.0052271015 0.04902238 0.14409873 0.08426463 -0.056444135 0.056820523 0.005758456 -0.062137596 0.15219566 -0.009276746 0.123370804 -0.061964713 0.13201566 0.056122545 0.0023647323 0.13000426 0.23852299 -0.054596774 -0.06402431 0.11860447 0.00901662 0.056513846 0.031769555 0.023596201 -0.013269525 0.052638326 -0.042694613 -0.011888947 0.096260644 -0.01491078 0.13638778 0.071012765 -0.01603608 -0.058219768 0.13415274 0.052696373 -0.005578745 0.095017076 -0.06878501 0.047483392 -0.03415529 0.040105827 0.074232034 0.035019588 -0.026970256 -0.06686976 0.08057766 0.03689663 -0.02619212 -0.010574745 0.09366991 0.007443057 0.104636416 0.1131634 0.02202743 0.09949993 0.0005745819 -0.020516219 0.071242325 -0.011526164 0.06800112 0.03420201 -0.013738804 0.03386396 0.09169043 0.042456944 -0.029988812 0.025691908 0.09383437 0.009804928 -0.029864153 -0.0038129915 0.060629398 0.043648925 0.020096637 0.06475512 0.11918445 0.08409021 0.01807746 -0.05193468 0.085314125 -0.02735387 0.02969886 -0.040045865 0.024460522 0.039367545 0.11860284 0.12214836 -0.066594705 0.023591843 0.12353555 0.108103596
bench 0.17348115 0.14593484 0.08415351 -0.011861643 0.071901694 0.080782175 0.100073524 -0.00022852406 0.032255106 0.08228813 0.0601627 0.011099886 0.059925295 0.044009946 0.0166114 0.022722255 0.038540658 0.063327625 0.016636156 0.08945968 -0.008539686 0.0313898 -0.017634144 -0.04565568 0.059418887 -0.013760817 0.14185995 0.022306148 -0.026374286 0.07666455 0.0928846 0.017132184 0.11644244 0.029485757 0.06622534 0.055838328 0.095842004 0.0027120386 0.020545647 0.13650484 0.046136096 0.024629325 0.057009708 0.08358781 0.11670342 0.08607162 -0.036726184 0.06437074 0.04456354 -0.025958734 0.03494629 -0.025931032 -0.013922944 0.06103406 0.118833914 0.068353355 0.08021518 0.022551218 -0.06685897 0.11501353 0.0980081 0.0780811 -0.03030462 0.032370094 0.058020566 0.068503305 -2.5695237e-05 0.05662424 0.011293601 0.08234633 0.090021566 0.040290214 0.0344322 0.040122997 -0.020582166 0.080882795 0.058910463 0.051126733 0.056272596 0.012206761 -0.008756169 0.043303423 0.07205936 0.09488943 0.08045699 0.04394755 -0.014170103 0.09526316 -0.0028999131 0.030917814 -0.028656546 -0.01716798 0.11609177 0.01820657 0.09715344 0.11213532 0.115444764 -0.00897907 0.023800494 -0.0022635744 0.10845906 0.107020415 0.013961749 0.011604293 0.085607015 0.019207932 -0.015466701 0.045082513 -0.041206688 0.09676732 0.064473264 0.14300592 0.0003751892 0.040753275 0.097072236 -0.058713406 0.05410811 -0.015433225 0.053534716 0.03319792 0.09445776 0.08753691 -0.008637058 0.14056748 0.1331837 -0.039667767 0.009152738 0.058157764 -0.0051223226 0.13492255 0.077894375 0.08335572 -0.033296656 0.050132107 -0.021092044 0.026679022 0.13302666 -0.01581646 0.17185023 0.06254957 0.012578722 0.021911867 0.089807786 0.05972127 0.10783085 0.047332134 -0.038792375 0.0760205 -0.026796032 -0.02735006 0.0158867 0.08781389 0.05253934 0.0013568681 0.08860364 0.056930523 -0.060043566 0.030342456 0.10430404 -0.012712789 0.14883196 0.10897951 -0.029294636 0.09338347 0.011662947 -0.008080349 0.111085705 0.07227416 0.15701613 0.11959071 0.0195719 0.08963309 0.04595211 0.06870764 -0.040464383 -0.0005485667 0.023144947 0.118978776 0.032474186 -0.024200305 0.060338147 0.15133895 0.12464091 0.037772212 0.031219592 0.12283019 0.06477656 -0.018950373 0.017951794 -0.0049217935 0.04259226 -0.03737421 0.07956584 0.026245145 0.08433078 0.04286476 0.04523872 0.11294031 0.0834784 0.063336715
bike 0.12239745 0.05772278 0.077983506 -0.048433803 0.090914205 0.06341134 0.08232059 -0.0104640545 0.060867786 0.00340961 0.082928 -0.025475996 0.06954462 0.013134931 -0.037181962 0.06200631 0.091722645 0.046876576 0.0012670986 0.0952434 -0.029150438 0.05058021 -0.02479612 -0.0008105561 0.04577887 0.008356425 0.09907709 0.009363797 -0.0132040065 0.15480028 0.14952762 -0.03939108 0.12005264 -0.0013305498 0.07695879 0.10939807 0.08909239 0.047947384 0.0049195183 0.12663405 -0.009398145 0.04656645 0.04368511 0.03004494 0.14022575 0.11559035 -0.07545675 0.0990607 0.07697795 -2.0805928e-05 0.041836143 -0.027932 0.049007256 0.10550139 0.12941547 0.08637443 0.07252746 0.06822243 -0.041758757 0.05279112 0.13246371 0.034102846 -0.027419003 0.057499237 0.037464075 0.10643623 -0.0021090321 0.009999756 -0.0064089852 0.069379024 0.10370062 0.018570058 0.031664744 0.014535974 -0.0036020966 0.03353114 0.0169536 0.09777968 0.073319316 0.039049327 -0.008610483 0.0036083644 0.1111306 0.09828014 0.05406996 0.050280865 0.06137048 0.07062659 -0.028233841 0.09096736 -0.033420675 0.011360739 0.06532455 0.0057525174 0.117704846 0.1289291 0.031563256 -0.0091437595 -0.04363188 -0.044474486 0.11090499 0.12570554 0.05679612 0.011604382 0.047609057 -0.03272428 -0.017167807 0.019943869 -0.048250396 0.13919275 0.08161536 0.09485113 0.013103768 0.0684705 0.107313275 0.005031313 0.081318915 -0.03154882 -0.008462256 0.0068283174 0.025379827 0.07956047 -0.032010943 0.078705154 0.09675219 -0.023880018 -0.012066125 0.0107132355 0.012521721 0.11515925 0.045969762 0.12495934 -0.06565985 -0.001467409 0.06455134 -0.01610076 0.10870969 0.015917215 0.16389984 0.0008616918 0.08960728 0.007674143 0.074469715 0.007928452 0.1020797 0.08281086 -0.010857692 0.052532107 -0.010708862 -0.0024504112 0.038422607 0.0064148866 -0.014658369 -0.01532379 0.062307253 0.12781586 -0.07665366 0.01635149 0.07636022 0.033509 0.03308942 0.063917875 0.0063430388 0.052368477 0.03150942 0.023547534 0.12831731 0.10487704 0.11490566 0.1294829 0.011392487 0.08526645 0.0655166 0.06498461 -0.030712655 0.0025488108 0.04610638 0.1476311 0.07764245 -0.05955887 0.08090351 0.1452249 0.15865524 0.008510542 0.02802819 0.09839624 0.055717558 -0.06823011 0.008684249 0.037431918 0.031049687 -0.009909475 0.08756458 -0.04415168 0.07764514 0.042422395 0.070131704 0.16855177 0.06586068 0.058469307
bird 0.027322458 0.029538943 0.035596572 0.031342573 0.012294226 0.098981485 0.08658515 0.1525717 0.0322267 0.052018456 0.15992607 0.09544565 -0.054680876 0.03212599 0.15835753 -0.008779272 -0.031108072 0.08309885 -0.012742245 0.10193813 0.08148346 -0.0057380097 0.019767161 -0.032009695 0.089274816 0.060717233 0.15128984 0.09130518 0.071457244 0.040734295 0.06665197 0.086012766 0.095340125 0.07135435 0.005521934 -0.035254303 -0.020223914 -0.0109694945 -0.010540456 0.114476755 0.12461855 -0.014304068 0.0049234787 0.061552368 0.09739441 0.067493565 0.040142022 -0.0582057 -0.03445092 -0.001642578 -0.045009144 -0.060178176 -0.000518225 -0.032417566 0.010508995 0.043514617 0.08385039 0.053269215 0.042980578 0.038791977 0.07084056 -0.055102967 0.045825545 -0.051995203 0.010132921 0.014734646 0.02722385 0.13596675 -0.05525628 0.0536818 0.10234937 0.060747165 0.027601792 0.09914433 -0.032674 0.11647905 0.074871935 -0.09087916 -0.040070668 0.011355431 0.069642015 -0.07070199 -0.08744128 0.08010036 -0.039339434 0.11260096 -0.0026208349 0.122960016 -0.009256487 0.05228583 0.07293503 0.06945294 0.055859216 0.14455843 0.11824317 0.111036174 0.106189296 -0.032520697 0.171474 0.06645085 0.049090788 -0.0076230257 0.11515481 -0.04698113 0.054980095 0.10594318 0.03217241 0.021999415 -0.06851576 0.07444693 0.015252403 0.1411537 0.051955808 -0.08136732 0.04846569 -0.07890817 -0.085520186 0.037487954 0.021114727 0.118030034 0.021293337 0.079747766 -0.0034197539 0.009912164 0.06734717 -0.04209297 0.08571342 0.038818534 -0.07454215 0.018162576 0.07260857 0.042516485 0.088778056 0.085561596 -0.009379197 0.12405156 0.06685611 -0.0573183 0.031647738 0.029561283 0.027237184 -0.01655084 -0.0031098914 0.12276888 0.060251717 -0.061709624 -0.048202563 0.05154979 0.08845807 -0.03442952 -0.0070416867 0.15983613 0.16665547 0.0053830133 0.0546866 -0.026593477 0.027118828 0.10219951 0.10555469 -0.0011438483 0.07542676 0.039634652 -0.07940487 0.051508434 0.043428745 0.02518195 0.0014216914 0.04499021 0.14610851 0.13748679 -0.028504001 0.065716185 -0.04581237 0.0050493362 0.041760426 0.06681769 -0.049038608 0.10024378 0.041374795 0.06905468 -0.073481806 0.042606197 0.0053785746 0.080777355 -0.057071622 0.010480417 0.07973389 0.05295761 0.021847883 0.08252232 -0.00064720795 0.002315113 0.07533502 0.09529506 -0.020907613 -0.059252348 0.07517972 0.04567713 0.023282431 0.03840264
board 0.12367823 0.10659888 0.03359155 -0.010980173 0.071767 0.054632884 0.071273625 0.0007433626 0.038421035 0.019275911 0.020561008 -0.016002977 0.08733545 0.09080011 0.022368938 0.06916231 0.026676241 0.081830144 0.063988015 0.073827654 0.025876831 0.0465007 0.036664013 0.06232612 0.09455632 0.01205905 0.110265374 0.05112742 0.015953505 0.0430685 0.05971811 0.013315275 0.06390697 0.10522815 0.110536784 0.06783716 0.09382038 0.046849355 0.10824839 0.10451276 0.039003078 0.028023811 0.05875915 0.10524018 0.15065977 0.075678565 -0.060895067 0.05343341 0.0005287502 0.027343525 0.029168112 -0.04413703 0.0056247865 0.078990355 0.08068615 0.10625018 0.07486722 0.016713401 -0.07659809 0.08130268 0.097320765 0.026987106 0.017430892 0.06551191 0.09226272 0.032122005 0.02246995 0.055009075 0.056926288 0.111442946 0.04802048 0.04570368 0.12044667 0.08040022 -0.06346482 0.103812076 0.08313604 0.061821666 0.09491185 0.020307356 -0.017156087 0.042288706 0.028567025 0.11504603 0.12491002 0.01918691 0.02130848 0.07195592 -0.0033555287 0.07580033 -0.014186168 0.018649578 0.11859021 -0.04865892 0.07644454 0.03569603 0.10054986 0.024158843 0.019357761 -0.00079420075 0.039049286 0.077121176 0.0029648081 0.046745036 0.12639663 0.063223176 0.018450903 0.015532953 0.020266294 0.079789944 0.07586263 0.049880747 0.038228903 0.075959235 0.11199477 -0.0038552997 0.0762634 0.047405794 0.10809497 0.05195331 0.11608562 0.11346235 0.05359988 0.04288643 0.16369346 0.009812527 0.044701643 0.1143835 0.049075596 0.045872744 0.04021248 0.087847084 0.047967628 -0.006032024 0.053802364 -0.012321737 0.06678972 0.036123697 0.14960673 0.10500156 0.04017113 0.07038926 0.08728738 0.13634463 0.10562305 0.14856857 -0.019296821 0.03354519 -0.032410864 0.055599343 0.04054454 0.029810878 0.050183035 -0.058202174 0.084135674 0.031489313 0.017395822 0.088242844 0.08818536 0.026357183 0.05713305 0.15253636 0.02518711 0.07027745 0.04841223 0.0050317906 0.09445084 0.03775424 0.116315454 0.057081006 0.07433673 0.05704281 -0.009315622 0.026246686 -0.0074690436 0.037669696 -0.001865196 0.03985809 0.009424861 0.0145397 0.091583654 0.14216073 0.13177925 0.07480732 0.07830296 0.07044156 0.05437141 -0.013867442 0.06151653 0.007951342 0.011053671 0.036803313 0.040345997 0.049798697 0.10887601 0.11414574 0.038572326 0.10572352 0.11288526 0.10414239
boat 0.067028984 0.010313366 0.1270499 -0.049983267 0.103980035 0.11347507 0.10866487 -0.027282253 -0.010923265 0.05437255 0.1113715 -0.01600434 0.07477143 -0.036809403 -0.031031854 -0.0034443005 0.057571176 0.06053541 -0.054404423 0.071256064 -0.04508567 0.043509874 -0.038502973 -0.02468279 -0.016128547 -0.040421415 0.13119188 -0.030571781 -0.042680446 0.15168655 0.15689844 -0.030278137 0.13299952 -0.0275907 0.053105142 0.08894668 0.064129904 -0.016124897 -0.0076526715 0.1384743 0.045464426 -0.038270667 0.0068817567 0.0466195 0.078568414 0.1140379 -0.043940518 0.10760731 0.03881082 -0.039747164 0.019428816 -0.061987564 0.063849434 0.041231338 0.13274255 0.12072466 0.107156806 0.068738975 -0.036260318 0.037499163 0.14173077 0.089852475 -0.034513142 0.06431436 -0.059632994 0.10304949 -0.037132394 -0.046586238 -0.03305203 0.043030273 0.11385455 0.03310033 -0.0037124786 -0.0017072605 0.02033226 -0.022442883 0.03208923 0.041745298 0.06987562 0.07008098 -0.045451753 -0.009756989 0.09829608 0.029385494 0.044150803 0.023548976 0.06555428 0.093914665 -0.050425187 0.039528012 -0.01542147 -0.048762236 0.028526058 -0.0067412257 0.11917546 0.13219346 0.015193547 -0.028425878 -0.042753726 -0.05543873 0.14058621 0.13470389 0.01770066 -0.040922526 -0.015682805 -0.05878428 -0.027868543 0.055461504 -0.06261947 0.11194637 0.057375632 0.15044038 -0.013573849 0.027304972 0.12445608 -0.0479078 0.030476438 -0.055566415 -0.002935217 -0.026321637 -0.009911961 0.11779757 -0.043952774 0.06852713 0.04249589 -0.04322187 -0.004726243 -0.028186686 0.024280863 0.14295599 0.05915525 0.14219226 -0.05924277 -0.011635096 0.035181537 0.025480784 0.13475384 -0.01299791 0.1432052 -0.009299711 0.08461631 -0.022406874 0.08686626 -0.046302218 0.12514426 -0.006907764 -0.018576656 0.10489225 -0.038973197 -0.05690212 0.002290442 -0.013005756 -0.005467308 -0.022540791 0.04237299 0.10518371 -0.08142363 -0.048363037 0.07571573 -0.012160708 0.058245055 0.022673847 -0.031092802 0.0008323392 -0.014209098 -0.02638207 0.15845464 0.099785276 0.09044615 0.13459866 -0.03740636 0.09088498 0.048433892 0.09493366 -0.050353453 -0.038874846 -0.0028844494 0.13350835 0.08699319 -0.07015889 -0.009055813 0.12313874 0.13913526 0.0064232256 0.032977514 0.09418173 0.051921714 -0.05221328 -0.023438737 0.043019287 0.0040819864 -0.048947014 0.06847615 -0.038847566 0.02611379 0.0026089454 0.0275131 0.12939182 0.08825644 -0.009885545
book 0.12857533 0.15133305 -0.023294482 0.011214292 0.06276853 -0.078529805 -0.024987247 -0.018082658 -0.041073717 0.09761827 -0.02496165 -0.0055601164 0.08614274 0.15920055 0.1075199 -0.0037668452 0.09488357 0.031022836 0.10942994 -0.0440092 0.012849904 -0.055876438 -0.045864448 0.012917542 0.11611887 -0.0056388224 0.01796202 0.13040966 -0.063553385 -0.04455103 0.003564285 0.008112699 -0.048719432 0.035323463 0.0027867912 -0.021275293 -0.026815083 -0.019620633 0.038669564 0.06991477 -0.036961008 -0.021049265 0.07905665 0.16766328 0.11394759 -0.046400487 0.030042948 0.01072686 -0.033045 0.015466267 0.044081848 0.0121685015 -0.06614386 0.12744793 -0.0046911705 0.031798124 0.03604657 -0.07757205 -0.04027009 0.091583125 -0.029918898 0.06450904 -0.039747275 0.01176901 0.082143486 -0.06542915 0.05889715 0.057278845 0.14075392 -0.027381798 -0.03687402 0.07172557 0.127358 -0.029404398 -0.08226127 0.043647293 0.14004037 0.065351196 0.06643542 -0.06919554 0.041309617 0.10844937 -0.053638805 0.18024631 0.101592675 -0.022038944 -0.07343765 -0.032992423 0.005753612 0.023623623 -0.048858307 0.054201894 0.13438815 -0.06716737 -0.01079338 0.0026671432 0.15412234 -0.021689467 0.03464447 0.030863723 0.00037037145 0.0226821 -0.068924636 0.11837637 0.13409993 0.047631126 0.088270225 -0.010641023 0.05883493 0.011880153 0.08310129 -0.021082949 -0.037139356 0.022869933 -0.02565986 0.008312987 0.11750598 0.0404601 0.15446074 -0.014328701 0.17570208 0.012127635 0.049884208 0.069039054 0.19452359 0.015966237 -0.029217087 0.14407067 -0.043562755 -0.0062120142 0.055291906 -0.005823655 0.09056015 0.082520954 -0.019280028 -0.016334346 0.027473032 -0.0017830648 0.05568613 0.16704972 -0.038748674 -0.03016622 0.10006933 0.08091104 -0.06521164 0.109402865 -0.05278757 0.0038267819 0.0075344164 0.09323874 0.06088577 0.02574854 0.008930787 -0.0044577876 0.067837216 0.023334604 0.08081894 0.04371772 0.06147566 0.013030251 0.064673685 0.09760045 0.04515148 0.13051125 0.053695958 -0.02487011 -0.034186143 -0.033304177 0.053877305 -0.03773925 0.03347001 0.004407578 0.050011687 0.040043227 0.0022514681 0.07498548 0.06326473 -0.022582704 -0.043240078 0.047659054 0.08312589 -0.025027879 -0.024122166 0.017065793 0.081647776 0.0057145203 0.078315906 -0.04985526 0.07519509 -0.047627546 0.02573662 0.0044311695 -0.035592996 0.09039141 0.14223124 0.10508765 -0.061944377 -0.035594724 0.0901679 0.14141314
boot -0.03045569 0.0050224713 -0.029040977 0.11207709 -0.025820179 -0.021197522 -0.014448893 0.030157497 0.09854529 -0.06468658 -0.04080734 -0.024232443 -0.02152733 0.0056199636 -0.04736731 0.15978858 -0.04352873 0.043481044 0.10157478 0.04820329 0.109856516 0.025195433 0.12919056 0.13180076 -0.010723435 0.03552883 -0.023328526 -0.034127172 0.16106421 -0.047270562 -0.046830125 -0.016733317 -0.0006349547 0.15567447 0.06878169 0.046057362 0.070912726 0.16442262 0.08061766 -0.057756376 -0.028286621 0.14512144 -0.030880885 -0.06884098 -0.04709341 -0.030901706 -0.049497865 -0.043972507 0.07214075 0.09721197 -0.02409068 0.113589235 -0.044821467 0.03938623 -0.011783051 -0.055953037 -0.055211324 0.12069838 -0.026486315 0.040383834 0.008309567 -0.027857387 0.13480335 0.07317983 0.13783774 -0.018215705 0.031611722 0.13095525 0.042795308 0.14197901 -0.025970021 -0.046183668 0.012142485 0.15259597 0.057713937 0.09808146 -0.05133077 0.036760822 0.08827993 -0.023075264 0.09622106 -0.035799906 0.022587651 -0.057391614 -0.0290999 0.039259467 0.04513502 -0.030092336 0.0025672377 -0.0005503366 0.0278344 0.08652668 -0.04780515 -0.009954819 -0.03212978 -0.039706662 -0.052808397 0.1617223 0.04414745 0.09353659 -0.052758053 -0.034630243 0.070368335 0.015428159 -0.0450391 0.14753826 -0.029496705 -0.052801546 0.053119935 -0.033585325 -0.03796558 -0.050004344 0.034463193 -0.029934395 0.0057627764 0.11757435 0.024350885 0.1836545 0.0089316545 0.07747003 -0.041833438 -0.025563113 0.13070056 -0.080169335 -0.022611769 0.07416984 0.03043615 0.00016839597 0.1282445 -0.03594748 -0.061839893 -0.06466764 -0.01640641 -0.05474555 0.15374775 -0.04200056 -0.06285895 0.12224793 -0.040863797 0.034281436 0.022438936 0.15806119 -0.06220097 0.029303089 0.059981585 0.1641859 0.13038106 -0.06335993 0.027295334 0.088594615 0.06666781 -0.010586144 0.019929295 0.03359652 -0.061047297 -0.037962373 0.08178822 0.091175646 -0.04484828 0.0010716505 -0.061844494 0.06970048 0.08352784 -0.03074203 0.027195347 0.1466017 -0.02541916 -0.057031542 -0.04241068 -0.039121125 0.09615239 -0.036195226 -0.021956038 -0.058844037 0.040064625 -0.03574676 0.0044656284 -0.047096033 -0.03249567 0.09464645 0.04908322 0.079579376 0.039970003 0.00032876132 -0.0075660865 -0.008389065 -0.052755676 0.10832517 -0.041686147 -0.011524908 0.04675235 0.15199088 0.05795184 0.04848455 -0.03977146 0.03239506 0.0529274 0.015861284 -0.055805262 -0.016402967
bottle 0.08589113 0.1195023 -0.053657062 0.082061864 0.012406034 -0.07964436 -0.075943545 -0.008310899 -0.0463031 0.033093743 -0.04126992 -0.0077206544 0.025926597 0.18842484 0.14244728 0.0007182619 0.044483785 -0.048876222 0.100806534 -0.056558605 0.035118993 -0.03336869 0.019507347 0.021184009 0.13436244 0.047399785 -0.031071724 0.12124193 -0.0092513375 -0.067680396 -0.025924195 0.01563177 -0.067381956 0.024688192 -0.028853029 -0.054188903 -0.06316618 -0.040073767 0.030032733 0.069355905 -0.03985198 -0.030916087 0.112373374 0.13359934 0.066563666 -0.033427514 0.07781103 0.019871915 -0.06312632 0.09602846 0.0017892852 -0.0061782775 -0.038932733 0.05729335 -0.03745016 0.03108174 -0.0075500924 -0.07479226 -0.010865698 0.031642765 -0.06847735 0.025428489 -0.042958345 -0.06302917 0.046821248 -0.05316972 0.06287842 0.04741893 0.09357349 -0.05039789 -0.062424302 0.07837904 0.11871987 -0.022638382 -0.059112966 0.01517727 0.14721636 0.03684069 0.0055849925 -0.04173909 0.030404778 0.11999792 -0.08119103 0.13086791 0.06524848 -0.03791241 -0.04693878 -0.01773474 0.008012815 -0.014988472 -0.025742551 0.086723626 0.094802774 -0.03872029 -0.011740001 -0.029652612 0.11272615 -0.019331267 0.024088528 0.028220799 -0.024448449 -0.020701515 -0.033468377 0.14731863 0.16591573 0.062628694 0.083335616 -0.020329867 0.07726874 -0.016289799 0.094233714 -0.053254258 -0.0059955064 0.034811325 -0.038771022 -0.023342606 0.059637636 0.040431138 0.15188003 0.037339736 0.14242283 -0.0352554 0.0666059 0.066360645 0.15991051 0.052064016 0.0068330253 0.14837201 -0.077314004 -0.05205198 0.06916919 -0.028946385 0.15943336 0.10712566 -0.06595887 -0.038821798 0.004421223 -0.033483427 0.0021390065 0.14360525 -0.075996295 -0.02067331 0.076289006 0.0943236 -0.061575565 0.0762977 -0.037980955 -0.010167202 0.09814245 0.09006185 0.06544325 0.03493534 0.009318263 -0.008219848 0.07187112 -0.027154876 0.13111156 0.0689213 -0.016949933 0.014479205 0.045543246 0.0036811994 0.002395061 0.13269764 0.012551966 0.053627025 -0.068497926 -0.027913941 0.065946035 -0.05021704 0.07258118 -0.068102606 0.01085386 0.01912096 0.083860524 0.13069022 0.08955947 -0.064707555 -0.036278497 0.082446724 0.05989591 -0.06399227 -0.02407183 0.03298941 0.047340665 -0.06309042 0.09941626 0.0014360175 0.09766373 -0.01352861 0.03076601 0.0050677513 -0.06927358 0.11910496 0.14590298 0.12962519 -0.04197624 -0.057276554 0.059144992 0.15140183
bowl 0.1609091 0.17131631 -0.038457204 -0.0055014733 0.043331355 -0.048798632 -0.04334757 -0.028543994 -0.068783976 0.06909213 -0.07242593 -0.04620284 0.07281875 0.16953427 0.11175121 -0.0003199364 0.024808757 -0.011407359 0.07114397 -0.051665574 0.0075023957 -0.023998475 -0.02425992 -0.035254925 0.11865656 -0.021053381 0.027173676 0.10273805 -0.054279704 -0.044303007 -0.0013473936 -0.0120753115 -0.02083828 0.0006420033 -0.0018130156 -0.053117435 -0.05021708 -0.033337295 0.05279634 0.048449088 -0.047515307 -0.017849166 0.11630363 0.15627801 0.092997655 -0.047493525 0.08485574 0.015201986 -0.04852473 -0.0020268739 0.04453616 -0.00082056015 -0.045028523 0.10717003 -0.023906745 0.046779912 0.025849234 -0.06629606 -0.027306112 0.060922094 -0.04596243 0.0691895 -0.05396712 -0.023011496 0.06510866 -0.05611658 0.070878595 0.0048329085 0.12825382 -0.037101008 -0.057647727 0.0888134 0.10821043 -0.068865806 -0.06995313 0.03666994 0.14136297 0.052259415 0.044492792 -0.031693526 0.02339954 0.09269976 -0.048286565 0.16863415 0.05818936 -0.053912964 -0.04938784 -0.018324813 -0.011399405 -0.0015593745 -0.0603344 0.062419508 0.13122259 -0.06818821 -0.024257924 0.007941205 0.1302572 -0.039536886 0.007731581 0.039503828 -0.006469363 0.015792176 -0.04935265 0.122009166 0.16573775 0.03763278 0.07070836 -0.018150507 0.0460669 0.01421091 0.13121003 0.017045073 -0.054245837 0.042586792 -0.06137452 -0.05864641 0.10742703 0.027007928 0.18765341 -0.030768648 0.12425001 0.009482461 0.018734608 0.10243597 0.15955679 -0.012732168 -0.055765856 0.1452461 -0.057911124 -0.014605881 0.04001236 -0.01920395 0.07914806 0.122247174 -0.059763197 -0.041262884 0.05741541 -0.043512546 0.04029535 0.10516576 -0.048544418 -0.051596504 0.10330993 0.09551827 -0.07801623 0.09409438 -0.06728364 -0.0054347427 0.035335667 0.08334881 0.088978626 0.04234908 -0.00094653177 -0.019010726 0.09660115 -0.028422885 0.065123715 0.012821476 0.04985392 0.01865585 0.11389862 0.10755869 0.028037872 0.1274733 0.009482074 -0.026354054 -0.039505027 -0.044420917 0.06134834 -0.023864385 -0.017168775 -0.020348692 0.050512202 0.023833767 0.003378223 0.09288705 0.071669966 -0.038208354 -0.04990063 0.05331787 0.06763711 -0.031262193 -0.035312984 0.0408925 0.066294275 -0.016254624 0.08430503 -0.03742332 0.093943484 -0.05351335 0.02131509 -0.021106279 -0.05302813 0.09740056 0.12964953 0.12409911 -0.08352332 -0.053961843 0.10409475 0.13540113
box 0.15580533 0.14307193 -0.033118613 -0.0091508655 0.047137722 -0.021620095 -0.01222623 -0.00057002914 -0.06437419 0.0277934 -0.016329767 0.0023750544 0.12526135 0.12365749 0.08996487 -0.010892061 0.09919189 -0.027820796 0.052805863 -0.05154939 -0.011820358 0.011669026 -0.019581784 -0.0066870204 0.1269774 -0.020948473 0.08704841 0.14011386 -0.009752342 0.05155547 0.072379194 0.010029979 0.0028932993 0.043180812 -0.023569448 0.018211838 -0.015569726 -0.03372128 -0.039725285 0.12886254 0.0023485692 -0.021077761 0.0954913 0.15006039 0.1490581 -0.013772161 0.048753574 0.1045042 -0.014464419 0.03720129 -0.018630391 -0.021986494 0.00018226849 0.08154561 0.053374343 0.12259452 0.017519103 -0.037330974 -0.050936818 0.042669233 -0.011230132 0.07487123 -0.06411981 -0.03904878 0.022203324 0.028433181 0.086134315 -0.014909801 0.09516914 -0.046898585 -0.030332666 0.092408225 0.08787085 -0.055808987 -0.04515416 0.02214533 0.11699831 0.05941796 -0.017666034 0.016884014 -0.015269618 0.09294934 -0.02673712 0.17743391 0.11135184 -0.03454004 -0.022203518 0.053742606 0.009591455 -0.0121088615 -0.010309406 0.030616427 0.107612066 -0.055975728 0.057513583 0.05630978 0.11757239 -0.059692692 0.005602333 -0.029456018 0.038258053 0.08207355 -0.033971373 0.12802115 0.16570053 0.020992776 0.07186161 -0.0019638995 -0.00030905427 0.051012322 0.0961165 0.048070926 -0.03560862 0.13333955 -0.012988504 -0.016367503 0.084651366 -0.026407378 0.114108615 0.004225121 0.12550469 0.026567958 -0.021217562 0.08952969 0.18252333 0.044298418 -0.03557571 0.13626534 -0.06767367 0.04630002 0.06547205 0.056210358 0.058254525 0.06517221 -0.04171024 -0.007895977 0.09943945 -0.06310072 0.10411191 0.14675666 -0.017844059 -0.01278647 0.13709913 0.0646844 0.010951746 0.09036065 -0.06283733 0.054275427 -0.002751388 0.07100178 0.11068696 0.03946925 -0.015224655 0.0031766926 0.11321439 0.06414327 0.044731922 0.046221916 0.06105312 0.030766614 0.14383283 0.04746374 0.007642783 0.13501896 0.03955712 -0.024252463 0.03220612 0.00050714315 0.11781013 -0.0093663875 0.057132997 0.0012995641 0.017103057 0.0838105 -0.01718522 0.08519732 0.07388315 0.0070653656 0.03117006 0.011346998 0.03191896 0.007061412 0.018410383 0.00061287876 0.014883078 0.0013922898 0.13220401 -0.051990293 0.076437965 0.0153385 0.04250415 -0.035469558 -0.0499651 0.109485544 0.14669634 0.068970785 -0.063368425 0.03982916 0.12111539 0.14895572
boy 0.09516222 0.081523106 0.018933777 0.044998284 0.06844746 0.08731187 0.09989323 0.0121753765 0.07713495 0.015562712 0.07820508 0.057631124 -0.010836084 0.024752583 0.024817104 0.07117003 0.054523855 0.11568453 0.1220712 0.18581675 0.047096144 -0.01500158 0.071249165 0.08185759 0.051911734 0.038111564 0.1168871 0.013122622 0.041164134 0.10502477 0.08143444 -0.034936037 0.086407475 0.14028347 0.09578606 0.0045431773 0.12893373 0.08433618 0.12511258 0.059894796 -0.0009660257 0.11425265 0.03236162 0.09649289 0.054172695 0.039511524 -0.0010185343 -0.0012344912 0.06323587 0.03240019 0.02890379 -0.0035122947 0.035249595 0.04271898 0.07076478 0.018671444 0.021036692 0.04520529 -0.0008439815 0.07084683 0.06432771 -0.012079464 0.07168696 0.031064676 0.12212364 0.03288435 -0.0022506928 0.14386588 -0.006369284 0.12514386 0.06782919 0.03602079 0.06674243 0.090403624 -0.06792632 0.17119224 0.05851064 -0.009143365 0.13327134 -0.038271952 0.04018337 -0.007565474 0.07509222 0.09739588 0.086051926 0.08927755 0.004829344 0.07405748 0.004486306 0.12218303 0.0033736362 0.07136523 0.06986498 0.0001373801 0.04778861 0.03226912 0.06530222 0.06388752 0.08224109 0.07724796 0.064634584 0.007470934 0.10082038 0.043852694 0.08308885 0.08894975 -0.014369767 -0.0016295437 -0.048100602 0.06618683 0.030808793 0.08325251 0.058484808 -0.04013558 0.08578354 0.034282885 0.068283886 0.10789972 0.11043813 0.042586524 0.048482373 0.095162086 0.10038442 0.014593338 0.1291721 -0.021628775 0.013070292 0.042667657 0.06599781 0.05241786 -0.0017396439 0.057726644 0.009672439 0.0023629898 0.12488427 -0.011783004 0.060078494 0.110219486 0.09571275 0.07474438 0.040291794 0.049783774 0.07493531 0.15429091 0.094556056 0.10475813 -0.023789117 0.038348753 0.033448536 0.08944089 0.021666303 0.0733123 0.084847875 0.0275836 -0.004942009 0.010984286 0.02483584 0.09680353 0.08245302 -0.04151974 0.017329043 0.111440755 0.053040054 0.037917055 0.07040977 0.052732494 0.06067954 0.014486729 0.048036143 0.07496422 0.021105126 0.10740834 -0.0054783835 -0.0018554018 0.031196902 0.01057063 -0.032424454 0.053116508 -0.07833432 0.02419381 0.11961363 0.14886492 0.108469576 0.0648458 0.0769991 0.09312924 -0.04981319 -0.009012204 -0.022037426 -0.007436931 -0.07466296 0.05582443 0.10022778 0.013425797 0.0761751 0.039098375 0.045338545 0.13927299 0.04787178 0.002031158
branch 0.01932226 0.08943038 0.12965976 -0.036798775 0.019232977 0.08202918 0.067948796 0.06332398 0.05118261 0.06007324 0.11107392 0.06774764 -0.030398818 -0.012742874 0.13085394 0.01446954 -0.08699654 0.085448265 -0.061187968 0.081696264 0.060918886 0.044834495 0.05956442 -0.043281432 0.0957428 0.07744923 0.14037216 0.044005558 -0.0059345234 0.08904051 0.03415342 0.058658767 0.075454734 0.05042203 0.08242467 -0.07155375 -0.009140482 -0.054327358 -0.014301583 0.1043828 0.1330219 0.05631012 -0.02718406 0.054425288 0.062702835 0.054050002 -0.030033449 0.0068580005 -0.001650377 -0.08198361 0.019620646 -0.046754826 0.028056243 -0.06475327 3.723126e-05 -0.020602396 0.08859724 0.054015107 0.05935132 0.05016583 0.06912652 -0.009438108 -0.016960876 -0.030108083 -0.007990466 -0.0066067493 0.013423341 0.14892186 -0.059424274 0.050929833 0.08878511 0.03447998 0.040697735 0.12978636 -0.041521735 0.11157627 0.025673214 -0.07240564 -0.020694522 0.0524048 0.064269446 -0.0414324 -0.028934427 0.047595605 -0.0913706 0.10684477 -0.06758885 0.14501014 -0.07611477 0.0059661428 0.06473651 -0.018411094 0.08426953 0.1154477 0.09492132 0.088568605 0.108457506 -0.035922274 0.08352156 0.065242745 0.04752304 0.017362151 0.1698717 -0.039737996 0.08987203 0.099191956 -0.003921695 0.019612493 -0.02707352 0.1189769 0.077936545 0.12715632 0.053211108 -0.06357841 0.010814541 -0.06327229 -0.10098618 0.03160615 0.0079234755 0.08015083 -0.014607883 0.12193562 0.024316547 0.026365994 0.08344015 -0.070266634 0.062664144 0.03848442 -0.01432096 0.021989265 0.0004979403 0.040584054 0.050291616 0.07939334 0.0053837583 0.18311569 0.07318133 -0.027535597 0.10907031 -0.02012411 -0.014705149 -0.0142776575 0.040044717 0.21297212 0.017920954 -0.039685123 -0.045133505 0.11089557 0.11698504 -0.01784616 -0.06701268 0.15666726 0.1368295 -0.07132129 0.0936228 0.011349554 -0.024520839 0.016152358 0.112712726 -0.004616409 0.0792496 0.042772725 -0.048211694 0.025677925 0.013253625 -0.034763645 0.018981835 0.09430095 0.10925027 0.12616785 -0.051667858 0.08531246 -0.03728773 0.06011325 -0.023349408 0.016898943 -0.057562664 0.098944515 0.06294551 0.012413606 -0.03427015 0.08722284 -0.038388457 0.12714058 0.00024103625 0.016337521 0.0753288 0.041317884 0.0036598246 0.043360673 -0.010847972 -0.010346185 0.116430946 -0.0061983448 0.025028307 -0.010530178 0.11550668 0.036035135 0.062820986 -0.043678924
building 0.057977863 0.029644826 0.112263784 -0.06056485 0.026241655 0.0966758 0.10069398 -0.014810558 -0.0059817876 0.07400531 0.12673633 0.0010109985 0.068393685 -0.031676255 -0.0052818656 -0.032414086 0.037400868 0.049828272 -0.061744522 0.050490383 -0.045219757 0.04769353 -0.04877663 -0.04884298 -0.02021639 -0.027127849 0.14900076 0.013302892 -0.022138601 0.13899946 0.14339666 -0.01178308 0.14429994 -0.04368432 0.03582022 0.055201035 0.0431431 -0.031116823 0.011604815 0.1362824 0.08808124 -0.038951483 0.012547471 0.07308661 0.11566393 0.09225506 -0.047093663 0.08980706 0.017807333 -0.045708038 0.025573593 -0.06588215 0.033861026 0.04852896 0.14881158 0.11037341 0.09605539 0.044280954 -0.028571447 0.011891671 0.13422936 0.027734874 -0.031747248 0.03228188 -0.06539332 0.12011431 -0.02327424 -0.032679092 -0.04834306 0.023101825 0.12463122 0.049710445 -0.0075382534 -0.0019715074 0.0073619178 -0.0073777554 0.02123864 0.017315712 -0.017012106 0.06444282 -0.0563451 -0.031204639 0.086661674 0.071328126 0.019920353 0.03199687 0.031160796 0.09596864 -0.04920146 0.026068913 0.0023747075 -0.075952806 0.052762415 0.0264569 0.10669109 0.14570326 0.045607004 -0.037054863 -0.04814164 -0.039298587 0.13077304 0.14177655 0.021876339 -0.056172896 0.013141548 -0.05246096 0.005996681 0.08212155 -0.0556888 0.118876964 0.07347643 0.15272003 0.015266608 0.05076962 0.08098726 -0.060204923 -0.0077544227 -0.065201975 -0.023761591 -0.0049674986 -0.003671287 0.096669 -0.058167867 0.09587861 0.06041912 -0.03556812 -0.015530013 -0.019044138 0.013258503 0.1264566 0.08143154 0.13732114 -0.059600852 0.008190289 0.0085031865 0.04765269 0.12896867 -0.015456158 0.16420648 -0.034325335 0.078791976 -0.043410733 0.08938298 -0.009429167 0.1316607 -0.03328506 -0.04570977 0.094419025 -0.04141248 -0.06986663 0.005669433 0.04478449 0.022087956 -0.033358533 0.068618044 0.10644207 -0.095056936 -0.019257778 0.10578994 -0.027315274 0.09187292 0.04275131 -0.037948906 0.005327261 -0.0056243683 0.0018868527 0.11756809 0.12347238 0.1325925 0.14570208 -0.046791937 0.09724692 0.045448236 0.08621675 -0.049792454 -0.016300213 -0.024393199 0.13868748 0.11676856 -0.05648433 -0.008855922 0.091102615 0.06350192 0.0009989901 -0.0039913575 0.09544975 0.09100156 -0.051390257 0.0061382283 0.079254895 0.0054577766 -0.07413418 0.082591735 -0.04268496 0.0061994013 0.010192471 0.030406116 0.12692496 0.08843569 -0.024556927
bus 0.08303768 -0.00072304223 0.1338888 -0.061730605 0.048035916 0.08409642 0.08757667 -0.009188174 0.0038323791 0.04707499 0.12608622 -0.023350248 0.07019311 -0.0455761 -0.0066830115 -0.015104018 0.055404387 0.026908133 -0.055521112 0.06861072 -0.050197463 0.046204764 -0.036960114 -0.033611145 -0.016781218 -0.021441624 0.10848092 -0.021222293 -0.020030389 0.1973722 0.15451723 -0.024295328 0.12583382 -0.04724285 0.030122394 0.10409438 0.05136548 -0.03013644 -0.017650146 0.14958873 0.042605486 -0.04040627 0.019558558 0.024279388 0.093042485 0.14018308 -0.03127954 0.13776685 0.026266325 -0.035677847 0.038758416 -0.06130032 0.0723108 0.030328296 0.10681143 0.11621452 0.08878103 0.04252681 -0.013244988 -0.017740639 0.12729013 0.038373254 -0.038026176 0.0035452382 -0.056784805 0.13962853 -0.044352412 -0.055033825 -0.039223023 -0.009504182 0.12696362 0.017280493 -0.028456932 -0.0037960953 0.031744074 -0.031019289 0.0132524995 0.04854493 -0.0014333292 0.07982089 -0.04942108 0.0048041027 0.10670427 0.07494354 0.03318949 0.026578309 0.053506777 0.09354649 -0.050718963 0.029629663 0.010584625 -0.061215043 0.034407075 0.038833637 0.13593765 0.12777376 0.0077674217 -0.019289719 -0.043303095 -0.051143996 0.124557205 0.1288988 0.011978783 -0.039539125 -0.019881317 -0.052384306 -0.015485222 0.07552319 -0.055277273 0.13050012 0.080564834 0.14382565 0.0041793156 0.0507882 0.12980418 -0.03328347 0.0060234405 -0.06628674 -0.0340334 -0.011838622 -0.01627196 0.113046624 -0.052368753 0.07412342 0.04708976 -0.02622067 -0.03037238 -0.040749405 -0.015398248 0.1443437 0.06964815 0.17565219 -0.05244717 -0.02108429 0.020072665 0.00459411 0.11726436 -0.023561735 0.1363704 -0.025300257 0.08459227 -0.025065174 0.11475204 -0.04156208 0.116937846 -0.03986706 -0.029169027 0.09874743 -0.029781226 -0.05566243 -0.0054749195 0.007171296 -0.027006632 -0.025297226 0.04106429 0.09088523 -0.070171475 -0.05102477 0.07197872 -0.009099845 0.09097328 -0.0009671846 -0.037133947 0.0033410667 -0.0176797 -0.035122406 0.12333491 0.13290347 0.11800905 0.12456407 -0.03256596 0.08676435 0.024528595 0.09301244 -0.045524377 -0.011635337 0.006320979 0.1245248 0.101977475 -0.06551058 -0.013389279 0.08693309 0.09272181 0.0027645498 0.010743918 0.08662814 0.08224736 -0.05934627 0.0025692733 0.057765987 0.019664537 -0.04855386 0.06649001 -0.046798468 0.0142101385 -0.016574217 0.032021187 0.14008783 0.10255558 -0.0072556036
cabinet 0.17053394 0.1477617 0.0038392968 -0.057177074 0.04877275 -0.04265202 0.012476178 -0.039196905 -0.05677737 0.08927082 -0.03406753 -0.029195463 0.13296604 0.0839624 0.0814864 -0.0587509 0.06923251 -0.015285187 -0.0048385113 -0.0378548 -0.04843215 -0.0006452347 -0.062444832 -0.043003075 0.1023266 -0.040685512 0.042932842 0.07908414 -0.067069985 0.0059726494 0.050959494 -0.01847869 -0.0043827854 -0.053888343 -0.017640669 0.019535212 -0.050470024 -0.05806809 -0.019282732 0.09801281 -0.028265312 -0.0724054 0.084206246 0.13894518 0.1433674 -0.014207981 0.071362376 0.07059726 -0.023633972 -0.030773222 0.04587367 -0.03504163 -0.025300449 0.10680696 0.07492341 0.11364193 0.06266063 -0.058707863 -0.03954159 0.03154339 0.0021037012 0.0792851 -0.057639014 -0.028871601 0.0054222518 0.0059683276 0.04220387 -0.049571525 0.103938326 -0.03944313 -0.009330128 0.100366004 0.091464065 -0.06523175 -0.038850658 -0.012102984 0.13519146 0.075064614 0.0064355657 -0.0063222307 -0.036587838 0.11836439 0.02527482 0.14909954 0.09959684 -0.048344593 -0.013042222 0.0034797897 -0.042401046 -0.036230903 -0.0651346 0.010585105 0.12752947 -0.038007207 0.011707624 0.045352377 0.13610175 -0.049994204 -0.017867375 -0.058961365 0.06694375 0.08668498 -0.0496573 0.04323573 0.12931441 -0.026525058 0.075897574 0.03943763 0.029142767 0.048135865 0.12969515 0.059541885 -0.05370811 0.1037588 -0.028837197 -0.050659444 0.121450886 -0.033892024 0.107277 -0.03454358 0.14058529 0.0036722485 -0.03127042 0.1618296 0.16484086 -0.026057493 -0.06485967 0.11758406 -0.032668922 0.052608777 0.07335596 0.08032892 0.06270995 0.077445365 -0.052526906 -0.0071320967 0.11748747 -0.061859854 0.08445767 0.0708781 -0.050159812 -0.07007415 0.17169587 0.013483774 -0.03153218 0.03995843 -0.055405546 0.06871751 -0.016281828 0.014863421 0.09172461 0.005405885 -0.03994327 -0.057820417 0.12924457 0.05143076 -0.0007212254 -0.019954616 0.05556877 0.016773708 0.1385736 0.059560813 -0.007827706 0.10652938 0.018761232 -0.049021415 0.013803228 0.014790809 0.088916086 0.026523115 -0.012894717 0.028483083 0.05868973 0.08985936 -0.0029047206 0.07501195 0.09268527 0.008795823 0.023065278 9.5734824e-05 0.03154435 -0.023384271 -0.04242163 0.028878724 0.06038966 0.013365023 0.11466659 -0.057134114 0.102049276 -0.043293193 0.030942896 -0.0514189 -0.03950982 0.053151194 0.14313619 0.11372486 -0.061524507 -0.019360643 0.15371168 0.13491078
cap -0.029945413 0.019266425 -0.04358515 0.14787726 -0.030782562 -0.0027462023 -0.05366491 0.04475736 0.101372816 -0.06761094 -0.039384175 -0.034976058 -0.04240519 0.028056087 -0.025330897 0.15898113 -0.05716857 0.043162193 0.11145195 0.009487402 0.11582092 0.0107931085 0.097990476 0.1309451 0.010024138 0.06655115 -0.03797729 -0.017030433 0.16620846 -0.072210416 -0.058064032 0.004554943 -0.022974862 0.14634514 0.07215547 -0.017506808 0.051156834 0.13281523 0.07621097 -0.057388484 -0.018846875 0.13489068 -0.026465604 -0.06980496 -0.04495605 -0.04536722 -0.032634765 -0.08353783 0.08790039 0.11241349 -0.04217444 0.107172914 -0.04100555 0.0244379 0.004732972 -0.07307671 -0.05751176 0.111318395 -0.036081642 0.015347158 0.005002064 -0.054039262 0.13080214 0.04957206 0.13155447 -0.035430767 0.0445141 0.13075036 0.014139859 0.12923793 -0.049533017 -0.02563922 0.0062212055 0.15030414 0.039497126 0.06590103 -0.050770793 0.022465836 0.054719973 -0.03582048 0.09722364 -0.03170627 -0.027657209 -0.04192537 -0.03077284 0.027139587 0.024700228 -0.047555864 0.0068242284 -0.008945835 0.08475239 0.0811053 -0.049168963 -0.009300773 -0.029238714 -0.0428609 -0.07118304 0.15034263 0.054655295 0.083975166 -0.06528555 -0.04921042 0.07205221 0.047484744 -0.019746073 0.13925152 -0.04307573 -0.05726959 0.06566419 -0.042284995 -0.026158096 -0.052641254 0.037016716 -0.038704738 0.004482697 0.08340621 0.012524333 0.2054572 -0.0043715197 0.07573128 -0.02735173 -0.039832465 0.12753114 -0.07264462 -0.028947327 0.085091285 0.046243265 0.0063939346 0.10224235 -0.05863502 -0.06313206 -0.07185425 0.022314198 -0.032001507 0.11710224 -0.04520992 -0.05968365 0.11452461 -0.050606705 0.035945546 -0.01022914 0.12671702 -0.08106996 0.019290386 0.052537635 0.13488494 0.12681125 -0.057631187 0.056469254 0.09214766 0.06572745 0.028692732 0.047498822 0.02204362 -0.057217266 -0.059175063 0.11195334 0.10073417 -0.034379657 -0.00023772258 -0.06959694 0.053729128 0.09643019 -0.025740663 0.013013582 0.1548237 -0.042736314 -0.065053605 -0.02475794 -0.019665133 0.12449198 -0.06177976 -0.040121414 -0.05508883 0.060317617 0.006986926 0.013754611 -0.044713378 -0.060283758 0.11746871 0.049084 0.07644659 0.010915867 -0.0058070323 -0.0035348332 -0.013166051 -0.036523506 0.1455379 -0.0404557 0.0063932557 0.056936655 0.13439031 0.049973246 0.057808165 -0.04432326 0.042491663 0.043149237 -0.010454031 -0.058633246 -0.01214451
car 0.077281564 0.0044096825 0.11391406 -0.061906718 0.05596861 0.10938721 0.10541129 0.014935813 0.0070382804 0.025637465 0.12965521 -0.011476509 0.085589014 -0.035788495 0.0053023812 -0.021981878 0.07584644 -0.016384851 -0.044737056 0.08455498 -0.05030307 0.041488748 -0.037932772 -0.01597625 -0.032512587 0.0012005039 0.13014656 -0.00740584 -0.0014604788 0.17058371 0.16127262 -0.018428091 0.09885864 -0.037210822 0.04311223 0.11373435 0.060228482 -0.012531529 -0.01829012 0.1332164 0.043027464 -0.010758026 -0.016269002 0.0066389902 0.10141902 0.15071172 -0.044734254 0.13107157 0.026704635 -0.0111988345 0.026628824 -0.075027175 0.08270988 0.038560715 0.102307245 0.12647659 0.07170916 0.086252384 0.010080769 -0.0071205436 0.14555205 0.04027922 -0.038609784 -0.008976295 -0.032266606 0.13825427 -0.038118895 -0.043090466 -0.043772444 0.009281563 0.10111865 0.01246259 -0.026191594 0.013320324 0.031207593 -0.0012823781 0.01869373 0.050176058 -0.0026318568 0.096461944 -0.035402663 -0.009057208 0.097467266 0.031054953 0.027846117 0.059582457 0.07475513 0.11069471 -0.056111265 0.014003648 0.032766175 -0.051968258 0.017363045 0.04627976 0.14957726 0.12871628 -0.0017361015 -0.008490266 -0.02731586 -0.057760417 0.13961019 0.14821035 0.022749022 -0.035490423 -0.011344942 -0.04975213 -0.006961103 0.09241329 -0.07119734 0.111788794 0.028731551 0.103643 0.026359787 0.050968736 0.11411524 -0.0020983627 -0.021344803 -0.073741466 -0.025785746 0.0040491265 -0.021726284 0.08418543 -0.048046533 0.05166956 0.04063435 -0.01161852 -0.0040287646 -0.03970769 -0.004330187 0.12614496 0.07925556 0.15703179 -0.050770275 -0.01898934 0.024767904 0.014892854 0.119807705 -0.025165975 0.16094986 -0.0071004243 0.095824726 -0.01494177 0.10178385 -0.030377824 0.15436417 -0.017633392 -0.023682225 0.08884244 -0.026286596 -0.07231065 -0.0001585423 -0.0067144195 -0.01165092 -0.02256675 0.045942165 0.110441834 -0.060349382 -0.017735697 0.05565037 -0.015015416 0.066587694 -0.020636924 -0.029933749 -0.013011577 0.00093087513 -0.00778402 0.12292479 0.117325716 0.1364515 0.11358748 -0.007696016 0.084186874 0.019336607 0.087798096 -0.034803633 0.0012081941 0.0042718467 0.11471821 0.11594174 -0.07247732 -0.0062781274 0.09026691 0.13004246 0.0086498475 0.005169895 0.09014984 0.08633245 -0.062003314 -0.028972564 0.07260228 -0.010986823 -0.0629579 0.062419664 -0.029896367 0.027446168 -0.008158252 0.06538671 0.17790097 0.07094008 -0.0032177062
cat 0.12816875 0.16131479 -0.05075452 0.081890695 0.032933265 0.0003839306 0.007664867 0.08356455 0.0031451927 0.064948685 0.0023117098 0.027308749 -0.0015330398 0.13240321 0.13584857 0.075534485 0.046273597 0.03152947 0.08055183 0.03375488 0.035113033 -0.055820495 0.03365616 0.06887207 0.09068544 0.12046579 0.053050697 0.15596133 0.01695471 0.07112102 0.026017549 0.0455021 -0.03391335 0.06452832 -0.0297707 0.0009419201 -0.029465165 0.036231432 0.046233427 0.09952381 0.0025998906 0.018233903 0.06716429 0.14162238 0.10096114 -0.022436155 0.029405273 0.009977654 -0.036867082 0.06998535 -0.06001009 -0.0042642327 -0.002829208 0.029010653 0.02565129 0.05904242 0.043224696 -0.008672043 0.0127675375 0.05190257 0.019999305 0.00012791484 -0.0028495258 -0.059956443 0.04676042 -0.043558914 0.038534448 0.13901174 0.06320147 -0.008956485 0.004629543 0.020638824 0.13176881 0.07559388 -0.03223247 0.14851654 0.18305573 -0.0102664605 0.04486334 0.007233982 0.05965478 0.09987576 -0.0635952 0.10962636 0.075033955 0.017827578 -0.004244951 0.06194193 0.044595376 0.015606746 0.034364957 0.09888962 0.08193832 -0.0063429605 0.073831856 0.027373858 0.14279988 0.007978397 0.112846024 0.09037984 0.027566088 -0.009448148 0.10755613 0.065272965 0.123446204 0.12527287 0.038227826 -0.023077419 0.028835677 0.03941672 0.05102735 0.040407054 0.05156532 0.032297444 0.03298793 -0.019405762 0.08279483 0.03678389 0.15316126 0.084168896 0.10356445 -0.008850423 0.06806574 0.08574174 0.19807215 0.039309315 0.036406748 0.13437702 -0.05345954 -0.01859207 0.08658495 0.060140595 0.10197947 0.04879618 -0.021461146 0.028049825 0.07202059 -0.019745843 0.06567007 0.13718732 -0.045759033 0.043789953 0.09225146 0.20401365 -0.0094023375 0.09158939 -0.06656592 0.019613922 0.10001574 0.045539025 0.07897927 0.059010297 0.093053535 0.017805206 0.04257673 0.035858862 0.06680472 0.11908674 0.035269953 0.0051320703 0.040930595 0.063892595 -0.016106253 0.11402622 0.05472697 0.03276087 -0.049436398 0.017705724 0.08134616 0.035137694 0.075816944 -0.0023208759 -0.036207493 -0.007720728 0.09598924 0.114432536 -0.0030099065 -0.004976391 0.037091695 0.070048265 0.09066471 0.010020266 0.014967848 0.04488954 0.033356283 0.03344496 0.10784549 0.01996336 0.028245322 0.002135209 0.0051197615 -0.0007177716 0.015141171 0.12855038 0.14290221 0.04465813 -0.012975903 0.027181376 0.08536471 0.108836465
chair 0.17293097 0.1661069 0.010208452 -0.026857058 0.046350934 0.026389398 0.0414608 -0.035850417 -0.0057509574 0.059228677 -0.019159608 -0.053068623 0.10676294 0.05766402 0.06286715 0.054075927 0.085256636 0.016457472 0.07269228 0.058405783 0.015382168 0.03736691 -0.007634014 0.020008577 0.0755488 -0.028739788 0.06023457 0.040320005 -0.048530784 0.08590974 0.060562965 -0.050205328 0.06464799 0.04691446 0.04262107 0.08218865 0.04030566 0.0010191265 0.04043588 0.10739298 0.01606584 0.007325469 0.06813214 0.14310332 0.16951948 0.06785494 -0.04144824 0.07555404 0.018632216 0.015765266 0.015536574 -0.009172041 -0.024093619 0.13212828 0.10337948 0.091865376 0.07085397 -0.036384106 -0.048608862 0.08903454 0.049806885 0.07849706 -0.042240564 0.04042262 0.046342783 0.025673531 0.058042187 0.04059654 0.09578721 0.046581484 0.025555082 0.048020203 0.0841136 -0.011525255 -0.01724566 0.068917684 0.13121021 0.10121862 0.07631462 -0.023297068 -0.002885304 0.102337345 0.031985912 0.15279026 0.1155835 -0.022800153 -0.013025646 0.022158459 -0.032842185 0.03441215 -0.06176247 0.013895014 0.07883813 -0.05609414 0.024987062 0.083994746 0.09086275 0.010081371 -0.022743514 0.024510022 0.0985907 0.065323055 0.0011308767 0.014964774 0.10503735 0.004559924 0.051696707 0.0019179607 -0.01785601 0.06496195 0.11997002 0.067449704 -0.0013303083 0.09695198 0.071100414 -0.035589453 0.13506603 0.022977825 0.12926492 -0.00965258 0.11943654 0.056488674 0.0043010004 0.102651596 0.23775837 0.02007052 -0.0057115667 0.12928258 -0.010982481 0.0623586 0.06602756 0.03963659 0.01344962 0.0414334 -0.016838688 -0.034378003 0.12028895 0.010525384 0.12135208 0.10062929 -0.014238494 0.013307167 0.15931576 0.06535523 0.046597514 0.13081925 -0.03385354 0.04569485 -0.037085332 0.05355496 0.065245785 0.030170841 0.005779375 -0.055254985 0.099430576 0.030882768 0.0017776495 0.038460262 0.07517503 -0.014001144 0.11247894 0.10293399 -0.009000714 0.09128117 0.06629721 -0.0050290492 0.061905846 0.011290923 0.1409879 0.051386125 0.0064656194 0.052283105 0.028456643 0.010442786 0.01895022 0.070963286 0.064448856 0.038917497 0.024412831 0.015614739 0.06654017 0.06531008 0.0999987 0.058779333 0.09318401 0.09809087 0.05881756 -0.059035517 0.09927361 0.015921524 0.039203256 0.0035030087 0.054452598 0.03285617 0.14341237 0.11519023 -0.017186265 0.058001976 0.1270388 0.114440285
child 0.08947941 0.08614419 -0.032133892 0.022210794 0.043980986 0.06894022 0.0962316 0.07478954 0.106582426 0.030225867 0.026752025 0.06258316 -0.020790864 0.059868723 0.020574968 0.1358159 0.047413502 0.114463024 0.019696433 0.13267082 0.08785758 -0.013726062 0.080895685 0.0721353 0.050701443 0.042550385 0.06324035 0.027481442 0.023942148 0.060536396 0.018936971 0.044530734 0.03649056 0.16532432 0.08018877 0.016594578 0.08462578 0.12331767 0.0728601 -0.008211674 0.044748385 0.1476138 0.05785841 0.048642535 0.0025795442 -0.025972009 -0.02465407 -0.07170955 0.074344315 0.01995692 0.04984748 -0.013310973 0.0063054995 0.024845725 0.026524628 0.00029313387 -0.019271232 0.016215315 0.011643097 0.075786 0.05808967 0.014213644 0.03935189 0.083342925 0.15482502 -0.021886226 0.016304148 0.1808493 -0.02964711 0.12873365 0.05395419 -0.02527305 0.03436272 0.115430765 -0.06552013 0.15641198 0.06544131 0.039133277 0.1181268 -0.054521274 0.054028805 -0.026872206 0.01206435 0.06501525 -0.017306142 0.06783445 -0.02972272 0.035197604 0.040473454 0.10788926 0.009668994 0.033979572 0.0002779487 0.036953732 0.046520773 0.013905897 0.03524248 0.11085355 0.12326454 0.13305694 0.071121246 -0.045335848 0.11096734 0.03529887 0.08033717 0.11081079 0.031685513 -0.06893871 0.0050980803 0.048021544 -0.073100396 0.07783082 0.07617221 -0.13145387 0.023142882 0.045980502 0.043582827 0.12457172 0.09023301 0.059096448 0.04087394 0.08163644 0.14565654 -0.02657078 0.13857143 -0.052958775 0.07993509 0.062514864 0.070987314 0.058927458 -0.014047933 0.021447634 -0.057539135 -0.04357375 0.12298315 0.050037514 0.053309944 0.1019404 0.09951519 0.10189215 0.047142316 0.060213238 -0.0025190187 0.14117323 0.017956236 0.07995014 -0.004769549 -0.00796263 0.023799334 0.06602413 0.0007404861 0.03644764 0.145833 0.024057662 -0.03133089 0.030338917 0.04364952 0.12880741 0.10643641 0.0013327283 -0.021839214 0.10556533 0.08001115 0.006373649 0.11892227 0.047250077 0.043121513 -0.021831613 0.07579469 0.07747583 -0.0071725645 0.07328535 0.023075245 -0.065050624 0.0023667426 0.002906823 -0.019209843 0.027843643 -0.05351326 0.051234584 0.056720313 0.15665206 0.09082272 0.078937896 0.03989332 0.082246326 0.015947837 0.030483909 -0.019188331 -0.028470539 -0.09691921 0.1024931 0.08300342 0.009696781 0.06871983 -0.011365027 0.0626473 0.10674083 0.041595165 0.0020553742
clock 0.113958836 0.07135983 0.068801425 -0.039953656 0.010960755 0.020431295 0.054221705 0.035282772 -0.047206786 0.027002476 0.13231298 -0.006922939 0.09801481 0.057152636 0.053085253 -0.057990886 0.0868218 -0.0292061 -0.023394307 0.012699865 -0.053745206 0.0064843926 -0.063521996 -0.0446153 0.03564137 0.034077074 0.07085197 0.10627177 -0.028833333 0.14168973 0.12030894 0.017081896 0.08270721 -0.018339943 0.0004639585 0.07605969 -0.025496535 -0.05401929 0.0035636413 0.17031206 0.06691343 -0.037751704 0.07389016 0.10134583 0.20244245 0.10818823 0.019584056 0.08650815 -0.035835344 -0.0030324406 0.006024873 -0.07753541 0.012461179 0.02380937 0.14079276 0.11605105 0.0692376 0.0016181107 0.0071714157 0.040638145 0.0818896 0.01493167 -0.009026519 -0.027987003 -0.067596234 0.07734642 0.0059755193 -0.052088022 0.0028809416 -0.040747304 0.07492752 0.045178235 0.03317544 -0.0076438375 0.03485713 -0.009371624 0.074292615 0.014645229 -0.03177992 0.06505186 -0.019108795 0.030600078 0.03013742 0.16949965 0.10125221 -0.003453564 0.008207127 0.11586391 -0.04231897 -0.0038903726 0.009552087 -0.022386761 0.058444813 0.03376877 0.15201461 0.11627644 0.069211744 -0.052713607 0.004276137 -0.023515342 0.11318127 0.116956726 0.005137897 -0.00026084803 0.05525806 -0.036071766 0.06676469 0.06993849 -0.034251098 0.0881698 0.06733179 0.13501261 0.020875584 0.056714244 0.06747993 -0.09682663 0.013291816 -0.062701695 0.04024536 0.05825879 0.06446137 0.024502002 -0.054897875 0.10053071 0.10514669 0.009023033 0.025111757 -0.0031026888 -0.07361338 0.09452414 0.12686485 0.15343678 -0.029690875 0.051069826 -0.0582688 0.013397865 0.15425664 -0.032096278 0.14238523 0.043466207 0.06666089 -0.017887501 0.11059864 0.009855728 0.14318347 -0.045316223 -0.053401396 0.090380445 -0.0016135849 -0.05289926 0.05476622 0.04980873 0.02578556 -0.017550683 0.11409923 0.12719545 -0.061203573 0.00010218338 0.06633751 -0.043357775 0.09384027 0.005189948 -0.027370142 0.034150448 0.026946418 0.014806759 0.037825115 0.16083705 0.1671416 0.080544345 0.0137853855 0.025103975 0.016546525 0.06421301 0.047040775 0.08779482 0.00827933 0.1005114 0.11333934 -0.026434822 -0.023726858 0.02610349 0.037123542 -0.021496626 -0.06422032 0.05081808 0.14716575 -0.035391215 0.016079737 0.13079776 0.023118678 -0.05318527 0.021019254 0.012463774 0.06468326 0.04549924 0.03936627 0.11522179 0.09130236 0.042108756
coat -0.037551343 -0.0006303296 -0.037420645 0.1375642 -0.039264124 -0.020904865 -0.023461156 0.06526585 0.12033593 -0.044948265 -0.04685744 -0.005533709 -0.05528334 0.0070751947 -0.012032443 0.16380177 -0.04778523 0.042991713 0.10046693 0.046340376 0.12324447 0.011411401 0.12121884 0.14228377 0.033561964 0.04517701 -0.015932536 -0.03808768 0.16033459 -0.053174578 -0.046763565 0.0022075616 -0.013767804 0.15407994 0.06923626 0.0039604753 0.05563351 0.14754668 0.065427884 -0.069080666 -0.008514847 0.168746 -0.03288566 -0.06335984 -0.055341814 -0.038799148 -0.031366657 -0.065278664 0.070440456 0.09448418 -0.033999525 0.12026688 -0.048194986 0.010161403 -0.019605864 -0.05591802 -0.048885927 0.10572738 -0.017345842 0.04647537 -0.007926739 -0.042766195 0.104592174 0.06608929 0.11917995 -0.026696114 0.030669376 0.1437659 0.021982852 0.15809505 -0.034546413 -0.060816236 0.018713262 0.16200857 0.041938875 0.08030198 -0.053485837 0.014962571 0.0734361 -0.021899428 0.11219439 -0.02672457 -0.033302065 -0.03262534 -0.03959581 0.04272417 0.028769786 -0.03414824 0.014331645 0.027662855 0.043530833 0.09925044 -0.050064538 0.0010992866 -0.042560764 -0.04521984 -0.044433005 0.14613716 0.05881974 0.12904651 -0.07006209 -0.061210968 0.093855865 0.038758326 -0.035898563 0.15960626 -0.04263332 -0.06405195 0.08142655 -0.031055624 -0.04698313 -0.060041573 0.044897586 -0.021853074 0.008143925 0.08272605 -0.02072993 0.18418081 0.021851854 0.08229626 -0.052177336 -0.019809209 0.13515383 -0.07238333 -0.037851755 0.06779446 0.06724171 0.022596061 0.107155845 -0.045795757 -0.04558316 -0.059992764 -0.017666131 -0.04833888 0.14616862 -0.019544132 -0.06325868 0.10809169 -0.03701887 0.029614132 0.019881338 0.1501589 -0.058063798 0.05272997 0.0540656 0.13391685 0.10505373 -0.05084871 0.066749506 0.0650619 0.03558866 0.03164092 0.06866 0.0012166825 -0.043274026 -0.056337904 0.094190545 0.10059475 -0.046783216 -0.011639908 -0.05748985 0.082512714 0.096494436 -0.020272054 0.027214924 0.14158913 -0.04164438 -0.051304545 -0.039081793 -0.021717668 0.085541815 -0.05037212 -0.03382107 -0.052472085 0.05441236 -0.03864328 -0.007971674 -0.040833082 -0.031285334 0.10390401 0.05508769 0.05975288 0.024060002 -0.008471041 -0.020595973 -0.012440492 -0.030571124 0.116189934 -0.044161003 0.024899134 0.026034486 0.12709147 0.04322374 0.04644031 -0.04301421 0.00020922678 0.042233568 -0.005742257 -0.051028963 -0.0019490467
counter 0.2112302 0.14263244 0.0026544675 -0.031877242 0.08939625 -0.0416832 0.003846607 -0.06590189 -0.05751113 0.08890443 -0.016184833 -0.05102852 0.11948457 0.108576134 0.0386658 -0.019834382 0.06850559 -0.009547491 0.02171037 -0.058679156 -0.04260548 -0.023593154 -0.056111753 -0.026080871 0.0746979 -0.059554137 0.01927585 0.05573788 -0.07640217 0.0042247507 0.043155525 -0.007813817 0.010614559 -0.038293112 -0.008032842 0.0072779898 -0.021688644 -0.046815325 0.045347016 0.11135779 -0.040624954 -0.069592945 0.09584011 0.19870272 0.13268505 -0.013262145 0.0421824 0.0839139 -0.018336715 -0.046372738 0.0629667 -0.019796178 -0.030403953 0.096186556 0.061999764 0.12208761 0.0806546 -0.052109506 -0.03414913 0.037978947 0.014898312 0.12128487 -0.055245075 -0.016579127 0.0033602733 -0.023854667 0.06967532 -0.034036208 0.103975795 -0.041140866 0.00090135937 0.08399211 0.09709503 -0.082659274 -0.047846697 -0.011937164 0.13524285 0.08216121 0.02527599 -0.024015257 -0.021910558 0.09590446 0.009268132 0.14742443 0.08343094 -0.052989177 -0.03077287 0.0006946442 -0.023622943 -0.0047071595 -0.07349089 -0.0087154005 0.1477947 -0.066094354 0.0153293 0.054020915 0.14223966 -0.06174978 -0.023590112 -0.022728242 0.063158445 0.07398509 -0.049632933 0.055929925 0.14326343 -0.03244737 0.08028256 0.010926402 0.035745483 0.043573715 0.12471919 0.056859013 -0.062181316 0.08967921 -0.02352736 -0.059437655 0.10422764 -0.041810106 0.1230318 -0.05689384 0.1380601 0.020282743 -0.024005184 0.12839893 0.18239641 -0.03912874 -0.06662741 0.11448337 -0.028311677 0.03304967 0.07119472 0.06674904 0.014710444 0.0690828 -0.038667295 -0.025064142 0.10562147 -0.043376192 0.078802355 0.062227793 -0.032693196 -0.06511816 0.15921023 0.0140678035 -0.029560613 0.058875207 -0.063677944 0.05620103 -0.04465414 0.023375424 0.09620209 0.029115137 -0.041901145 -0.0539379 0.09754894 0.036563292 -0.008249245 -0.01664295 0.06405322 -0.012636249 0.12420938 0.06046696 -0.012537202 0.094138496 -0.0013721858 -0.049089655 0.036279347 0.0068802275 0.06740027 0.027725354 -0.02268673 0.03488013 0.08781083 0.08543488 -0.02837846 0.061809786 0.09859524 0.010331092 -0.036680717 -0.016037995 0.051383108 -0.022121215 -0.01130842 0.017732812 0.047282495 0.028007466 0.087080725 -0.055419277 0.11092201 -0.023773422 0.041881688 -0.047403455 -0.03508603 0.036274265 0.12952723 0.12782896 -0.08326485 0.011221926 0.13846147 0.13592865
cow -0.016892 -0.06005425 0.061299298 -0.015184682 0.003224793 0.16256538 0.13979243 0.047003962 0.10632748 0.020018976 0.12397225 0.06885921 -0.08808524 -0.09577935 -0.013155 0.06499 -0.06931502 0.12594752 -0.03147831 0.15901387 0.047806945 0.013226138 -0.009410069 -0.021659704 -0.038076293 0.034005232 0.14000268 -0.07067845 0.055955082 0.089378715 0.08085129 0.05309288 0.10879256 0.019016547 0.10719369 -0.034127135 0.059143234 0.035965394 0.04681591 0.055818297 0.10950496 0.059450034 -0.041575745 0.0129152415 -0.00054672454 0.10171173 -0.07760653 -0.005355394 0.078852385 -0.02349368 -0.0020594357 -0.043786976 0.018378584 -0.04934867 0.0718218 -0.013740948 0.07570014 0.09762518 0.06627568 0.04452909 0.08823821 -0.03288706 0.038429502 0.022005333 0.03198936 0.043684173 -0.06068668 0.10070283 -0.06461007 0.08115913 0.12985529 -0.026492298 -0.038860213 0.14131078 -0.00060870074 0.117695816 -0.051838167 -0.08575957 -0.007163287 0.04495937 0.013568594 -0.057502124 0.020174583 -0.0075331545 -0.09551916 0.14514206 0.023299767 0.07410271 -0.037892465 0.07816068 0.0955198 -0.023871377 -0.011793806 0.13412164 0.08949566 0.09931288 0.05041764 0.029170638 0.10197674 0.0712897 0.09782145 0.02896907 0.15029296 -0.066869274 -0.017541852 0.0380659 -0.013351205 -0.005251116 -0.06030395 0.108303934 -0.064007476 0.11617339 0.08916143 -0.061071087 0.08375086 0.0018211204 -0.043993536 0.022516606 -0.05942399 0.055942584 -0.035111498 0.10480691 0.056286376 -0.0018241521 -0.029619379 -0.04654571 0.06475777 -0.05415369 0.019247195 0.052250948 -0.0023997696 0.09906951 -0.0010273135 -0.04076082 0.0627627 0.12651297 0.037114073 0.039585833 0.083263464 -0.069502994 0.0738709 0.011258266 -0.020620476 0.0904029 0.124548614 -0.041446373 0.002347433 0.06724288 0.027026553 -0.06349279 -0.07982206 0.14714083 0.12326103 -0.015990285 -0.026999317 0.01572013 -0.06123883 0.08327227 0.10481606 -0.00590903 0.025897723 0.020333271 -0.05119956 -0.021212345 0.04758785 0.0030306594 0.07767683 0.10379045 0.088925 0.12583189 -0.027885247 0.10300177 -0.032737635 0.027442677 -0.007473759 -0.02224358 -0.021216072 0.1304683 0.05099655 -0.027035218 -0.047792733 0.14603393 0.029602142 0.08648561 -0.03420525 0.08653863 -0.034520432 0.03910014 -0.05273551 0.031000897 -0.013935541 -0.021535361 0.13563928 -0.01934889 -0.056153134 -0.0562871 0.1394971 0.09810067 -0.050988797 -0.048744824
cup 0.08311209 0.14451426 -0.065933034 0.043465894 0.010109253 -0.085725375 -0.043068595 0.022790773 -0.052124757 -0.021046268 -0.0662291 -0.02027993 0.044676766 0.1880326 0.11297848 0.017440775 0.05265486 0.00068763946 0.10840469 -0.04445569 0.04468382 -0.02371402 0.013322676 0.012198754 0.17478713 0.028118702 -0.012429821 0.100280486 0.02215782 -0.08032274 -0.029705597 0.0034285996 -0.02188218 0.069081 -0.037703585 -0.030644348 -0.040202763 -0.012903829 0.004399378 0.008945995 -0.06254523 0.00580283 0.086031795 0.102407455 0.03663752 -0.054859154 0.070707284 0.012524118 -0.06141206 0.06325759 0.016067088 0.02999926 -0.053154763 0.12537543 -0.041607875 0.015155207 0.00047150892 -0.030891508 -0.008369243 0.09462997 -0.06131701 0.024538767 -0.0036516802 -0.03002899 0.09506239 -0.064503305 0.08487932 0.05205333 0.13605484 -0.009564268 -0.07133072 0.06746872 0.11565416 -0.012523378 -0.08360324 0.052954365 0.08440274 0.016146708 0.05413309 -0.018515386 0.052962676 0.08236395 -0.08889183 0.12887257 0.044306606 -0.038843427 -0.019527495 -0.022548215 -0.008090706 0.0026544363 -0.020809777 0.10116441 0.097135924 -0.051377993 -0.0109418025 -0.03197922 0.09716569 0.023418132 0.035144888 0.06555593 -0.034367412 -0.04437543 -0.044496074 0.14945805 0.14297935 0.11377859 0.058559664 -0.012847355 0.064658806 -0.013615808 0.09931447 -0.04332097 -0.047968585 0.06631119 -0.044872086 -0.03128573 0.06387207 0.060153898 0.17162438 0.0571224 0.12149268 -0.0061841127 0.06974476 0.061819393 0.10567191 0.074795805 0.00947205 0.17229421 -0.024946155 -0.047895495 0.030816037 -0.04648824 0.13317572 0.086368434 -0.03885631 -0.010379355 -0.010943003 -0.033153944 -0.029267395 0.15828624 -0.06528131 0.022326391 0.01858498 0.115793414 -0.04686316 0.15925527 -0.031626027 -0.057298116 0.042514015 0.08388927 0.09156072 0.04324187 0.0719338 0.03727059 0.020644821 -0.02737512 0.14669558 0.059925877 -0.022952624 0.06836104 0.067785814 0.08906694 0.02992613 0.12717608 0.03345815 0.04019856 -0.060148172 -0.056126315 0.019601507 -0.043149866 0.06858718 -0.067763105 0.011071307 0.026713315 0.025842244 0.10947528 0.105978325 -0.041449264 -0.023948632 0.11153456 0.06331169 -0.04727826 -0.009082166 0.0048495843 0.02527118 -0.0553801 0.091654986 0.013608455 0.04390459 -0.05315535 0.022220999 0.0783864 -0.07623212 0.12248239 0.13131484 0.12073742 -0.052431226 -0.084414326 0.053074848 0.1630193
curtain 0.07871214 0.014622831 -0.016550286 -0.04345314 -0.052865595 -0.018878562 -0.004527908 0.09829167 -0.08229875 -0.004499161 0.08116225 0.014730476 0.14642243 0.06644969 0.10969794 -0.062192027 0.117275394 -0.06968669 -0.026966996 -0.07275141 -0.04003617 -0.0136404745 -0.060265876 -0.038497686 0.06858894 0.050698888 0.069029555 0.17922424 0.0076972465 0.06548227 0.12094356 0.044376258 0.0038210843 -0.038776934 -0.06109185 0.11716365 -0.06631273 -0.052084938 -0.06545722 0.13688338 0.099858835 -0.02711074 0.043532573 0.07575559 0.12389877 0.046180584 0.063028485 0.097474284 -0.06485796 0.07682425 -0.046490274 -0.035824683 -0.0103121195 0.03189342 0.09513784 0.11076176 0.029422278 -0.04716354 0.016240492 -0.025239909 0.032963816 -0.03947844 -0.015773186 -0.07902888 -0.0573918 0.10811885 0.012078179 -0.06673721 -0.01891819 -0.06304192 -0.018479422 0.07400141 -0.031698506 -0.047182266 0.017174492 -0.024657896 0.050620947 0.056635074 -0.08372082 0.11288714 -0.062076256 0.1316604 -0.009932516 0.14612436 0.04242959 -0.0057064313 0.09230282 0.0884763 0.00062244583 -0.055563122 0.09785501 0.008092918 0.026460249 0.059178572 0.13649799 0.10639632 0.053109955 -0.030847782 -0.019483298 -0.08817165 0.05875206 0.14910929 -0.02176581 0.02386126 0.06836471 -0.009269408 0.11366853 0.07682779 -0.02199792 0.06805314 0.027430164 0.053036384 0.005402295 0.12378231 0.026435524 -0.0105533125 -0.022590183 -0.054153234 0.015213535 0.10433857 0.045539044 -0.03184372 -0.07142895 0.05829656 0.07234255 0.08206826 0.046625253 0.06933784 -0.077840984 0.07201793 0.17505082 0.12029623 0.036027253 0.053791884 -0.027844014 -0.011381108 0.060717728 -0.043283153 0.052669413 0.10909439 -0.045612715 0.0010878866 0.15226749 -0.031228611 0.09692211 -0.04082903 0.008135502 0.06571473 0.041345555 -0.021182323 0.07622057 -0.0319971 0.00839807 0.019050997 0.13890338 0.15228893 -0.002618259 -0.014407146 0.0710474 0.02864657 0.08476588 -0.031007217 -0.019393101 0.07270354 0.018900527 0.030047478 0.002501414 0.11552107 0.10098634 0.016998107 0.05590194 -0.05035287 -0.05635167 0.09855902 0.030574074 0.08623681 0.057082083 0.032665186 0.1702146 -0.013105569 -0.057880934 -0.056913055 -0.0005312805 -0.07208724 -0.03571751 -0.030669618 0.16180013 -0.05911678 0.051525615 0.09446488 0.06620136 -0.037740722 -0.050001826 0.03938723 0.040180314 0.00895483 0.078591935 0.08868159 0.0957064 0.09548221
desk 0.1960294 0.17058338 0.025281355 -0.025034076 0.087352574 -0.02256927 0.009692847 -0.052663073 -0.060079064 0.103809096 -0.024739504 -0.04908672 0.09572973 0.080722764 0.06169464 -0.032836653 0.08542228 -0.010131522 0.01769993 -0.035336945 -0.02591559 -0.009224698 -0.047249336 -0.022120377 0.08874147 -0.050086387 0.034967605 0.080050096 -0.06617715 0.040977407 0.040614385 -0.028146079 0.035981778 -0.018638851 -0.008545719 -0.0024910572 -0.013165294 -0.0439564 0.0018430995 0.10619812 -0.055383403 -0.04677551 0.09420996 0.17411704 0.13180457 0.02028003 0.026020817 0.08201041 -0.0022032936 -0.055091865 0.045998935 -0.0034496998 -0.030449042 0.14507605 0.07598693 0.109847434 0.046614576 -0.06726657 -0.036269143 0.07541528 -0.010241769 0.09428529 -0.048600007 -0.01439156 0.0053920024 -0.0052636233 0.04669909 -0.032003183 0.100148626 -0.044773124 -0.013182087 0.06893467 0.09802716 -0.06884508 -0.03519439 0.0016992848 0.13799909 0.07943227 0.039631974 -0.021843068 -0.01967902 0.09541509 0.027956566 0.16253643 0.0951967 -0.053215228 -0.038679965 -0.0061947107 -0.016848888 0.0050034486 -0.059221655 -0.019901402 0.13195784 -0.061708156 0.0033483848 0.039047286 0.135636 -0.060679074 -0.03032456 -0.025141314 0.07340235 0.058683593 -0.057680704 0.055198852 0.1432726 -0.026339708 0.056387924 0.02891921 0.024544703 0.033692457 0.12912898 0.08360401 -0.064621784 0.082933925 -0.008677083 -0.046996623 0.13178608 -0.032066464 0.11514456 -0.049896482 0.12298984 0.02842367 -0.021057956 0.14435034 0.1922316 -0.015068539 -0.052553955 0.13357824 -0.027307097 0.054950293 0.05815262 0.0680778 0.029690826 0.07126425 -0.0448619 -0.025022486 0.13775572 -0.042090863 0.09507908 0.075298816 -0.031518817 -0.0573308 0.15588695 0.0029470727 -0.019465284 0.06891172 -0.05921713 0.035729855 -0.022194736 0.035230115 0.08708092 0.0062072943 -0.05173595 -0.056896076 0.09599968 0.058128122 -0.0151847955 -0.014464373 0.039606318 0.009922156 0.14236785 0.07090653 -0.001283908 0.122190185 0.018394195 -0.034987286 0.050046373 -0.0067032096 0.061149247 0.027054092 -0.02687736 0.02600013 0.07115528 0.084913425 -0.016573774 0.043573506 0.06056396 0.01407571 -0.014855997 -0.029115612 0.052626237 -0.016807783 -0.008061531 0.029700248 0.099640004 0.037354074 0.077549286 -0.055506136 0.109341405 -0.023082005 0.045603797 -0.046982136 -0.013213089 0.049358204 0.15988518 0.112389855 -0.06028782 0.006347413 0.1547684 0.11179578
dog 0.065872505 0.049708318 -0.011685321 0.03580456 0.01372554 0.032966018 0.091876276 0.104842976 0.10011247 0.031704225 0.06954952 0.063612774 -0.029363902 0.09809644 0.14691256 0.13176657 0.09148033 0.027756818 0.09118506 0.119853966 0.019306999 -0.018688928 0.05129325 0.07900335 0.08374665 0.096722156 0.102922134 0.055543605 0.0816162 0.1054698 0.08623698 0.01596316 0.005748524 0.09365068 0.019609567 0.003917493 0.014588356 0.09145509 0.061163876 0.10170457 0.04660053 0.050664514 0.03333928 0.0813219 0.07672995 0.035368912 -0.019360295 0.013471182 0.015911425 0.07671887 -0.013097372 -0.036425732 0.022049163 0.022805896 0.07157715 0.0444556 0.017859243 0.047489375 0.044978324 0.087514155 0.06952485 0.0016358182 0.04125175 -0.0041137165 0.094223954 0.0033919658 0.02161521 0.13524495 0.028782483 0.09591686 0.0956592 0.019746333 0.08212258 0.17387694 0.00048292658 0.12907793 0.045041703 -0.013615354 0.06178752 0.0052713305 0.09175822 0.057855096 -0.023211513 0.08958201 0.0046459856 0.108251624 0.050497353 0.13395725 0.05110466 0.0745349 0.10690381 0.08192206 0.065287195 0.007793769 0.11385359 0.09937343 0.09376219 0.0702549 0.099527456 0.14815344 0.05480807 0.033483356 0.07491121 0.06098488 0.089809746 0.110108934 -0.0028836052 -0.005500091 -0.0036646994 0.06038608 0.020271853 0.0486705 0.10290721 -0.042717088 0.08994505 -0.0009647884 0.013188202 0.04841784 0.09251713 0.12331696 0.050588977 0.07584245 0.08121093 0.046939284 0.11325727 0.023303239 0.058360834 0.07421605 -0.027316023 0.031662107 0.067569666 0.109911956 0.042555675 0.0038140013 0.05113805 0.028746756 0.0476203 0.05979298 0.08451604 0.097985275 0.05838718 0.051525634 0.00806446 0.17615324 0.12682872 0.08055015 -0.023110244 0.048016336 0.077378996 0.044479582 0.036973625 0.096132666 0.15785635 0.021261122 0.021717679 0.026876384 0.023552248 0.1572388 0.0897015 -0.0014487851 0.017430987 0.05031973 0.021308877 0.06691758 0.09210959 0.07190886 0.017712146 0.05893043 0.08472666 0.063280836 0.054532424 0.033780396 -0.05408123 -0.0113881845 0.07307147 0.089718126 -0.003596708 0.08884548 0.057096284 0.019813329 0.07314115 0.08595891 0.092623845 0.03557783 0.01674948 0.05937858 0.071798824 -0.018539991 0.011137547 0.057501573 -0.003087482 0.04581273 0.046824858 0.0630256 0.07088159 0.0031991072 0.092530295 0.1276208 0.0083070975 0.06344907
door 0.1330295 0.069084935 0.048557583 -0.061567314 0.0074450965 0.042018272 0.039328814 0.022857519 -0.0643558 0.037010208 0.07248053 -0.006012651 0.16078934 0.048782542 0.06214824 -0.041337278 0.106718436 -0.058332738 -0.052646257 -0.025464164 -0.045297798 0.045606438 -0.03218154 -0.018102031 0.039118845 0.0047381176 0.07990234 0.09598656 -0.022615355 0.13313237 0.1337871 -0.0034386767 0.02574246 -0.030471569 -0.06212346 0.08808653 -0.017744267 -0.056123827 -0.052719638 0.15768456 0.019850023 -0.044497054 0.041793864 0.106146716 0.16339248 0.08799692 0.021752711 0.115245566 -0.053131852 0.061265413 -0.00680242 -0.04370584 0.03657423 0.046762776 0.11195722 0.15695935 0.03866594 -0.025311336 -0.023598816 0.0067515303 0.08308618 0.018796962 -0.05395593 -0.05077581 -0.059174597 0.09049754 0.0060207723 -0.056663286 -0.01482904 -0.049663574 0.06487301 0.09300956 0.0073680454 -0.035786137 0.011368979 -0.044838205 0.07190012 0.05682719 -0.03214561 0.10241062 -0.056906022 0.111477606 0.052661113 0.1284855 0.103389695 -0.007486631 0.049520873 0.1108326 -0.051783837 -0.045706276 0.0010537504 -0.010081685 0.08061577 0.014887216 0.11946723 0.08960614 0.057865184 -0.049616516 -0.04956475 -0.07039549 0.10120009 0.12752053 -0.012398875 0.014308343 0.06565889 -0.055271313 0.091208674 0.05905387 -0.029351762 0.06814437 0.08048661 0.070516035 -0.018836658 0.122172005 0.05397001 -0.03104719 0.008319727 -0.07067169 0.055271134 0.037139278 0.03483583 0.024914885 -0.051413912 0.10183524 0.13204692 0.039569765 0.004248434 0.03111885 -0.06625266 0.096573405 0.14137034 0.14973849 0.021404533 0.03268048 -0.031865515 -0.014454151 0.11691943 -0.044040922 0.14448158 0.07938086 -0.0027986432 -0.008485883 0.15599675 -0.023021957 0.09456386 0.016590292 -0.0052082385 0.097559705 -0.007944426 -0.021083534 0.07953483 -0.029554114 -0.02252565 -0.018575229 0.12513371 0.14088093 -0.041140754 -0.029673615 0.05547622 0.01668668 0.10989768 -0.021010652 -0.041397933 0.08482985 0.03247973 0.024058444 0.07113241 0.1157115 0.103685185 0.039944574 0.02310032 -0.0057601645 0.012198544 0.098436944 0.010197585 0.05747068 0.06287164 0.057578497 0.14665535 -0.032716367 -0.039381348 -0.011192767 0.037651815 -0.04928133 -0.0028475444 0.01944257 0.13085456 -0.07003163 0.07521371 0.07439932 0.05630092 -0.06868099 0.00034593308 0.017865347 0.08115841 0.029958135 0.017001469 0.10663303 0.11885817 0.10898912
drawer 0.13700469 0.12770467 -0.035496168 -0.013562203 0.023524191 -0.05545729 -0.03735408 -0.027902048 -0.060943235 0.04330773 -0.052908793 -0.039999727 0.10812379 0.133438 0.10365187 -0.03037541 0.08737081 -0.040272254 0.061851207 -0.04298436 -0.022073885 -0.022792628 -0.03599567 -0.030071476 0.114607126 -0.019700099 0.010935202 0.14503923 -0.05243518 -0.029910294 0.005711918 -0.007512122 -0.052085146 -0.020291911 -0.03286033 -0.0072989957 -0.05435244 -0.05085803 -0.023773955 0.05871934 -0.050892975 -0.047628824 0.09035768 0.16193005 0.115832694 -0.029832147 0.06594859 0.04177945 -0.049547378 0.010892665 0.040882826 -0.010709656 -0.03556229 0.107576646 0.026582435 0.088080116 0.03488189 -0.075784184 -0.026006097 0.011813258 -0.04027704 0.06396923 -0.03804031 -0.04916874 0.0012870434 -0.040389743 0.07807778 -0.01380805 0.13298668 -0.052941184 -0.034212414 0.10684439 0.0957705 -0.054018285 -0.04186202 -0.004555395 0.13932422 0.06332749 -0.011215355 -0.005407751 -0.0019672962 0.14945848 -0.009308154 0.16071388 0.120248735 -0.054864507 -0.041314557 -0.0023840722 0.0021508096 -0.035881512 -0.041297033 0.045722034 0.10904391 -0.04097472 -0.017850252 -0.006413779 0.13770744 -0.044527747 0.0030071521 -0.023695024 0.0032254965 0.039418057 -0.056486126 0.11912127 0.17228362 -0.0071288683 0.108951844 0.022842495 0.053027503 -0.016342668 0.11596358 -0.016829416 -0.06640967 0.096948564 -0.049756337 -0.025290629 0.13039751 -0.01695305 0.12404148 -0.020143377 0.17038172 -0.021184033 -0.020535668 0.13465533 0.17390053 0.042495828 -0.046278592 0.1400332 -0.04353916 0.007847064 0.07958826 0.037722874 0.11273994 0.09336016 -0.052311905 -0.03975145 0.058086954 -0.054729845 0.037865404 0.11635137 -0.058160733 -0.053121388 0.13567895 0.026886238 -0.044617333 0.07830806 -0.03317385 0.004595615 0.019581966 0.06619062 0.1087003 -0.023044102 -0.047656745 -0.023601687 0.08011641 0.057364073 0.05771509 -0.003311797 0.014587849 0.05386683 0.0904896 0.017472476 0.0042970767 0.12302792 0.013849367 -0.012249622 -0.020629847 -0.014944532 0.049779076 -0.033250574 0.0059936256 -0.018892268 0.04961674 0.07102344 0.042167917 0.10885879 0.104115024 -0.030735048 -0.012132844 0.031116586 0.046140354 -0.048552524 -0.051027954 -0.0042722635 0.07038312 -0.038515147 0.0943843 -0.04850168 0.11780925 -0.039855298 0.05112124 -0.027521983 -0.048119802 0.085759826 0.13358824 0.1266569 -0.05104528 -0.03126325 0.10369185 0.16032283
ear -0.068618245 -0.01631286 -0.061582804 0.11704781 -0.02997311 -0.0051770085 -0.0074536847 0.12135027 0.068837404 -0.031843968 0.010572887 0.07478342 -0.048537795 0.047242466 0.0068781227 0.08622948 -0.030410338 -0.028281415 0.065091066 -0.0123438295 0.07363416 0.039307777 0.12557186 0.09686989 0.027041264 0.139685 -0.05319736 0.038453434 0.14628536 -0.046498656 -0.05660159 0.055855934 -0.03899522 0.14325565 -0.036130615 -0.028102504 -0.0106607685 0.07717435 0.010343645 -0.053306177 0.05744724 0.12300471 -0.023733208 -0.053883307 -0.032223016 -0.02950597 0.012572845 -0.07384431 -0.022007478 0.13621259 -0.068116926 0.056859437 -0.049070954 -0.078232594 -0.05392851 -0.056068562 -0.046633065 0.05615807 0.07982921 0.0535879 -0.048466623 -0.07185925 0.11426307 -0.020905614 0.091466025 -0.013220697 0.03926813 0.15905406 -0.026969865 0.03719362 -0.016825212 -0.030911483 -0.023307532 0.16238907 0.02173839 0.11708784 -0.044264864 -0.05645911 -0.015142503 0.017788379 0.12436804 -0.009610711 -0.07124402 -0.032561462 -0.05809139 0.10998695 0.018886251 0.028854162 0.011661147 -0.02572882 0.14278136 0.07978837 -0.058788 0.096664526 0.0015279294 -0.047589656 -0.034207143 0.06416026 0.097102776 0.119511604 -0.062790446 -0.07428753 0.10462079 0.0178227 0.011505601 0.12348165 0.040305987 -0.03483442 0.018964304 -0.037120022 -0.054396525 -0.05623486 0.13658398 -0.053796627 0.0024021561 0.090444915 -0.04715578 0.12515882 0.003102562 0.15366822 -0.034017283 -0.030519893 0.104611024 -0.078615986 -0.033750728 0.09133123 0.1480558 -0.0002869947 -0.011358701 -0.058651324 -0.032484435 -0.05173691 0.08833527 -0.009634728 0.07694372 0.06948929 -0.059737027 0.048942912 -0.048327 0.038176287 -0.03501615 0.10270369 -0.06260689 0.11939723 0.06520312 0.051966347 0.07341216 -0.04622483 0.12078843 0.06836494 -0.0016838441 0.049860653 0.1354626 0.03751011 -0.013643368 -0.028051008 0.11150861 0.09575713 -0.039727136 0.034762457 -0.06253805 -0.006473984 -0.025494028 0.003987667 0.052281544 0.15066585 -0.05471386 -0.019217921 -0.039439827 -0.04074714 0.13007459 -0.08049847 -0.07363745 -0.069795884 0.103664346 0.048598476 -0.052786373 -0.043980468 0.01657614 0.15143639 -0.050756313 -0.015683122 -0.0077486895 0.0141246 -0.023639476 -0.06646901 -0.047227006 0.15163672 -0.01898037 0.052083448 -0.004570018 0.11700715 0.048822336 0.069626 -0.044117723 -0.036726233 0.13065411 -0.008449695 -0.07264778 -0.021300208
elephant 0.06541253 0.06781201 0.07767558 0.024910936 0.077700585 0.11829841 0.15082377 0.037082322 0.08153094 0.09357905 0.08255144 -0.0029469351 -0.016458578 -0.02703963 0.03604658 0.10799113 -0.082237385 0.1163633 0.024484633 0.1648257 0.027201224 0.034330342 0.026402254 0.032986585 0.03694548 0.05413024 0.118764214 -0.03243779 0.05158808 0.10694871 0.08924166 -0.0031352076 0.11345587 0.074374914 0.10198546 0.024659637 0.09927594 0.050751083 0.088625796 0.102540664 0.07202955 0.07756371 -0.008467299 0.06083601 0.044946376 0.063376695 -0.04950571 0.036041986 0.06678556 -0.03394447 0.006630564 -0.023106555 -0.025918191 -0.0020555991 0.02342802 0.013919187 0.08538528 0.10505968 0.047535013 0.06287822 0.11168152 0.03623447 0.026533008 0.054387067 0.043390572 0.013191065 -0.033510238 0.14605373 -0.05912863 0.11602947 0.11899219 -0.049276963 0.037546538 0.13736181 -0.01784001 0.16655536 -0.0028601822 -0.053023007 0.056710236 0.0043903613 0.082926616 -0.03205031 0.028327385 0.03272907 -0.028486343 0.07952783 -0.016159585 0.06628037 -0.05903492 0.094422825 0.05855204 0.00655307 0.011261279 0.066152684 0.10262073 0.06472649 0.057074405 0.07413875 0.09258001 0.10081467 0.08532353 -0.01170342 0.16882785 0.0030224626 0.05208175 0.07372334 -0.0044881306 -0.0180654 -0.04998131 0.06316393 0.013153562 0.1093218 0.069277264 -0.055845965 0.101916865 -0.02873963 -0.009220283 0.055398386 0.0052758674 0.07256343 0.024900084 0.14434634 0.08552953 0.0028144831 0.088503815 -0.07389246 0.022046788 -0.0049704146 0.048584413 0.07407115 -0.032772753 0.08421251 0.016733095 0.013243953 0.082574934 0.12225589 0.0697693 0.07673592 0.12654664 -0.022231696 0.055966396 0.002186889 0.015957892 0.14258768 0.059025854 0.01588476 -0.031525515 0.072175145 0.07139083 -0.05760435 -0.08486015 0.12249537 0.1710081 -0.04361843 -0.0173715 0.028677547 -0.028581329 0.025150781 0.09455099 0.008900957 0.015400726 0.10500054 -0.009724757 0.03555601 0.013921128 0.021525357 0.0562693 0.065812215 0.10789632 0.11178794 -0.021446014 0.0835091 0.0030819993 0.017512983 0.00794157 -0.020151766 -0.013197315 0.12785394 -0.013979272 -0.022614297 0.0033737598 0.10340773 0.0457679 0.13878985 0.040032152 0.1140976 -0.009788682 -0.00016122148 -0.031000378 0.0074917744 0.029925777 0.012548713 0.16292676 -0.019827675 -0.013969645 0.0068183118 0.12079591 0.105762914 0.02842813 -0.03088479
